%YAML:1.0
---
opencv_ml_svm:
   format: 3
   svmType: C_SVC
   kernel:
      type: RBF
      gamma: 0.5
   C: 1.
   term_criteria: { epsilon:1.1920928955078125e-07, iterations:1000 }
   var_count: 64
   class_count: 34
   class_labels: !!opencv-matrix
      rows: 34
      cols: 1
      dt: i
      data: [ 48, 49, 50, 51, 52, 53, 54, 55, 56, 57, 65, 66, 67, 68, 69,
          70, 71, 72, 74, 75, 76, 77, 78, 80, 81, 82, 83, 84, 85, 86, 87,
          88, 89, 90 ]
   sv_total: 3890
   support_vectors:
      - [ 0.247868136, 0.174924195, 0.0877829865, 0.00753185665,
          0.0133617884, 0.00632772595, 0.00311627239, 0.191139758,
          0.179320857, 0.100216761, 0.16336742, 0.00659011398,
          0.0402539223, 0.00959833805, 0.133480564, 0.146012813,
          0.225602284, 0.116860993, 0.00910890475, 0.0441113785,
          0.115500569, 0.109166838, 0.072744742, 0.251176149,
          0.152507752, 0.00763327768, 0., 0., 0.033960145, 0.044970531,
          0.132732227, 0.217527196, 0.162524119, 0., 0., 0., 0.,
          0.0776477307, 0.189245656, 0.235829219, 0.199363992,
          0.00881414954, 0., 0.0394814387, 0.10984423, 0.0851394758,
          0.112759851, 0.223812282, 0.253725618, 0.0713805482,
          0.112840414, 0.115122721, 0.012291058, 0., 0.00824488234,
          0.179066181, 0.311823159, 0.0493560247, 0.0362157598, 0., 0.,
          0., 0., 0.160959259 ]
      - [ 0.230824605, 0.113415115, 0.126504362, 0.0271967426,
          0.00702876737, 0., 0., 0.175936371, 0.210354641, 0.106431335,
          0.141423956, 0.105358504, 0.105536602, 0.0304369051,
          0.0109180193, 0.222267374, 0.251470953, 0.00660810107, 0.,
          0.110229321, 0.112039022, 0.134327099, 0.105867922,
          0.191697508, 0.195830345, 0., 0., 0., 0., 0., 0.125528634,
          0.223863751, 0.197601259, 0.0206866283, 0., 0., 0., 0.,
          0.156326309, 0.271294922, 0.179344088, 0.00295523275, 0., 0.,
          0.00815546419, 0.13840273, 0.120981373, 0.186361432,
          0.234919608, 0.0939077809, 0.0738240108, 0.120859571, 0., 0.,
          0.00660810107, 0.158579871, 0.25975278, 0.195682034, 0., 0.,
          0., 0., 0.0179199111, 0.161329284 ]
      - [ 0.324462563, 0.157621101, 0., 0., 0.00743770925, 0.00556098484,
          0.00541641982, 0.143998742, 0.262059927, 0.0848036781,
          0.0799726695, 0.118492804, 0.0155790756, 0.0281520467,
          0.0138045521, 0.104333222, 0.274867177, 0.0118606668, 0.,
          0.0369937494, 0.103000969, 0.0957537964, 0.0871887803,
          0.161543727, 0.250787139, 0., 0., 0., 0.00371885463, 0.,
          0.160128772, 0.201445282, 0.207425326, 0.10478282,
          0.0439472571, 0., 0., 0.0651665479, 0.161545947, 0.155819029,
          0.258427113, 0.00776287029, 0., 0.0373258442, 0.128479138,
          0.0818271115, 0.141942978, 0.0889840499, 0.251970679,
          0.119852506, 0.078320004, 0.118033871, 0.00525925448,
          0.0282458737, 0.0655083135, 0.147896469, 0.278632075,
          0.152526647, 0.103453457, 0., 0., 0., 0.0859189183,
          0.083581917 ]
      - [ 0.285626233, 0.108741328, 0.00633897306, 0.00660182768,
          0.0098222997, 0., 0., 0.190538362, 0.231132954, 0.108053781,
          0.0995927751, 0.0839402303, 0.0114913946, 0.0126895374,
          0.0082595367, 0.179896131, 0.263771683, 0.00944949035,
          0.00633897306, 0., 0.0973510444, 0.0835508704, 0.0906125009,
          0.27353552, 0.12741977, 0.00441490812, 0., 0., 0.00794604328,
          0., 0.118317962, 0.209237769, 0.176965833, 0., 0., 0., 0.,
          0.0433331616, 0.130202264, 0.282964826, 0.180220231,
          0.00774956495, 0., 0., 0.112421393, 0.0908760726, 0.118168153,
          0.245955691, 0.251869917, 0.125454932, 0.073784247,
          0.106107429, 0., 0., 0.0124455923, 0.178368226, 0.251133323,
          0.188334659, 0.0503231734, 0., 0., 0., 0.00624362286,
          0.157978877 ]
      - [ 0.311341137, 0.0896342099, 0.0838534236, 0.0925565213,
          0.00533544365, 0., 0.00317247375, 0.250234336, 0.111939639,
          0.141225398, 0.122814029, 0.105819404, 0.0154164834,
          0.00564154517, 0.0406199433, 0.161179259, 0.233742848,
          0.0063449475, 0.00843607727, 0., 0.131657362, 0.0978578553,
          0.0866777822, 0.207853049, 0.215976164, 0.00317247375, 0.,
          0.0513071567, 0.0732071549, 0.115962356, 0.112332657,
          0.246951461, 0.16503267, 0.0466328971, 0.0355423205,
          0.050910715, 0., 0.112366416, 0.132896408, 0.235315531,
          0.170567602, 0.0686785877, 0., 0.0047439551, 0.105743781,
          0.0794899538, 0.101523533, 0.191328287, 0.191975892,
          0.164892629, 0.0706325844, 0.105757415, 0., 0.0426704548,
          0.049362693, 0.182468414, 0.242429584, 0.134830892,
          0.129938975, 0.0531591587, 0., 0.0329239964, 0., 0.152852818 ]
      - [ 0.286312699, 0.126696095, 0., 0.0060853269, 0.0111642107, 0.,
          0.0101344008, 0.210539281, 0.178937986, 0.103545763,
          0.0848571584, 0.12288738, 0.0212195627, 0.045460891,
          0.0204436611, 0.180076092, 0.147099152, 0.0104081053,
          0.0274240952, 0.00830044225, 0.0718014315, 0.126773849,
          0.106344655, 0.277288884, 0.109902948, 0.00847904757, 0.,
          0.00479226233, 0.0138028068, 0.0102519598, 0.125564948,
          0.322961867, 0.161940113, 0., 0., 0., 0., 0.0175581705,
          0.126611948, 0.307477713, 0.144816801, 0.00653828122,
          0.0318046808, 0., 0.0609955415, 0.134331569, 0.107944824,
          0.221543983, 0.11317908, 0.115457557, 0.117325522, 0.113911867,
          0., 0., 0.0111016799, 0.260367393, 0.225670606, 0.125584021,
          0., 0., 0., 0., 0.00790402852, 0.251507282 ]
      - [ 0.304749519, 0.107125983, 0.135463238, 0.00753427669,
          0.0134453597, 0., 0.00441252161, 0., 0.267374277, 0.148755342,
          0.0851818249, 0.134688914, 0.0134414965, 0., 0.00540421298,
          0.0956671089, 0.263928145, 0.0158397276, 0., 0., 0.127799317,
          0.129636154, 0.114778295, 0.154728502, 0.201053157,
          0.00441252161, 0.00769524183, 0.0700826943, 0.0568915419,
          0.138563529, 0.173012406, 0.12919642, 0.231579959,
          0.0604875386, 0.0156564806, 0.0420105681, 0.00371047342,
          0.0764933676, 0.202102557, 0.184023649, 0.203123882,
          0.110468499, 0., 0., 0.117421448, 0.106604695, 0.114128813,
          0.122204855, 0.235697672, 0.0784620792, 0.137501702,
          0.0994673595, 0., 0., 0.00540421298, 0.00466567324, 0.30129686,
          0.156108096, 0.0749847814, 0.161011994, 0.00371047342, 0., 0.,
          0.101548761 ]
      - [ 0.322683513, 0.129591525, 0., 0.00463752775, 0.0116627654, 0.,
          0.00930390507, 0.258052468, 0.0800458118, 0.0851477608,
          0.14494285, 0.0695958063, 0.0147979399, 0., 0.0582791045,
          0.130842939, 0.166441709, 0.00632717088, 0.00955222733, 0.,
          0.0138793169, 0.125872672, 0.139075905, 0.258779138,
          0.0817293897, 0.0053716125, 0., 0., 0.00987022649,
          0.0861563087, 0.160076588, 0.290142179, 0.162041411, 0., 0.,
          0., 0., 0.0403257422, 0.195793852, 0.293501616, 0.125288025,
          0.00620260369, 0., 0., 0.110762194, 0.0720696077, 0.0981607065,
          0.230330616, 0.161442295, 0.112427808, 0.0762345567,
          0.106185347, 0.0400084965, 0., 0.0113696903, 0.253919899,
          0.254367799, 0.0959894285, 0., 0., 0., 0., 0., 0.231571764 ]
      - [ 0.238380805, 0.16455625, 0.0406156816, 0., 0.00982641056,
          0.008867817, 0., 0.24883543, 0.141426221, 0.0643924773,
          0.111803807, 0.115212597, 0.0159960259, 0., 0.010584943,
          0.241431266, 0.178799957, 0.0467238799, 0.0055537764, 0.,
          0.121843345, 0.102417082, 0.162931502, 0.105837911,
          0.194947153, 0.0981435254, 0.0055537764, 0., 0.0417026728,
          0.0560981818, 0.123834662, 0.27542153, 0.18378216,
          0.0271747094, 0., 0., 0., 0.11871776, 0.131069377, 0.293342352,
          0.16716297, 0.00833533518, 0., 0., 0.0739164129, 0.0961253643,
          0.150460288, 0.184142664, 0.212922096, 0.115461268,
          0.0874765366, 0.0586923882, 0.0118175335, 0., 0.00624623569,
          0.276602447, 0.229964525, 0.0977741405, 0., 0.00754150655, 0.,
          0.0313877165, 0.0240166411, 0.202844739 ]
      - [ 0.213323385, 0.105790839, 0.0688956752, 0.00843424257,
          0.00961602479, 0.00543486886, 0.00753771141, 0.244078085,
          0.155501872, 0.131631553, 0.0914474279, 0.0701584369,
          0.111695729, 0.0429602005, 0.0115192169, 0.270937651,
          0.224903569, 0.0103123756, 0., 0., 0.167187989, 0.0820988342,
          0.0836590901, 0.134752825, 0.230057538, 0., 0.00867795572, 0.,
          0.117411584, 0.089641206, 0.136308238, 0.225722983,
          0.154588759, 0., 0., 0., 0., 0.0253884625, 0.132735014,
          0.28542468, 0.189301282, 0.00305625144, 0., 0., 0.,
          0.119025201, 0.119760066, 0.23530665, 0.143444479,
          0.0822708309, 0.0981325358, 0.0986792296, 0., 0., 0.0192155316,
          0.208691552, 0.241351932, 0.144957289, 0.116155706,
          0.066397734, 0., 0., 0., 0.223688945 ]
      - [ 0.208316803, 0.133358628, 0.108698517, 0.0420355797,
          0.00947771408, 0., 0.00426002452, 0.246767953, 0.107021116,
          0.108049326, 0.122661807, 0.121435627, 0.110726334, 0.,
          0.0228588469, 0.227539033, 0.11825189, 0.00911798421, 0.,
          0.10906066, 0.0719543025, 0.140515819, 0.124144226,
          0.272467971, 0.0314340219, 0.00301229209, 0., 0.00637022266,
          0.00358223938, 0., 0.130377859, 0.313041538, 0.11226657,
          0.0355419405, 0., 0., 0.00450442731, 0.0540583432, 0.196066543,
          0.276428342, 0.111453131, 0., 0.00535669737, 0., 0.0724674091,
          0.139730886, 0.119375914, 0.246292919, 0.187563404,
          0.144141689, 0.1062897, 0.105054311, 0.00506605161, 0.,
          0.0155321667, 0.228229478, 0.212070674, 0.163607955,
          0.0691647828, 0., 0.00358223938, 0., 0.108985871, 0.16527316 ]
      - [ 0.305837452, 0.130106494, 0.0817681327, 0.00686876848,
          0.0858307704, 0., 0.00975401979, 0.158035681, 0.241519332,
          0.08434093, 0.0949485153, 0.126890093, 0.00894802064, 0.,
          0.039985735, 0.120194905, 0.285416126, 0.00695281243,
          0.00947206374, 0.0422893465, 0.142825276, 0.0956130102,
          0.0840804577, 0.130452946, 0.258351296, 0., 0.00772518478, 0.,
          0.0600347891, 0.0813507438, 0.131918997, 0.168808416,
          0.219594911, 0.0237975251, 0., 0.00858472381, 0.00516614225,
          0., 0.174086019, 0.127935261, 0.256572574, 0.0523830764, 0.,
          0.0964078605, 0.116288893, 0.129884318, 0.0960308015,
          0.0964071527, 0.277912259, 0.0836207494, 0.0950844437,
          0.126767546, 0.0754939467, 0., 0.00434419047, 0.199673027,
          0.268296927, 0.13113822, 0.0824719667, 0.0618151464,
          0.00365301431, 0., 0., 0.0815635994 ]
      - [ 0.262904704, 0.131835684, 0.0807266608, 0.0575993173,
          0.00807886012, 0., 0.0052622105, 0.206738725, 0.190648019,
          0.0826811418, 0.094311513, 0.0954077095, 0.112760782,
          0.00540265953, 0.00429657707, 0.184678033, 0.234808639,
          0.00744188949, 0.00807886012, 0.0742760226, 0.126232117,
          0.0943961963, 0.111785345, 0.210364476, 0.171826869,
          0.0240117293, 0., 0.00576890539, 0.0623380393, 0.118217774,
          0.0976737365, 0.21929419, 0.17870748, 0., 0., 0., 0.0615637712,
          0.0802685767, 0.127784476, 0.28103292, 0.168168798, 0., 0.,
          0.0732648373, 0.125698164, 0.0932339281, 0.0824860185,
          0.22203806, 0.23576656, 0.0827674195, 0.0888138488,
          0.080968082, 0.123130113, 0., 0.00303813862, 0.123158365,
          0.299864441, 0.137107, 0.103355445, 0., 0., 0., 0.,
          0.162630886 ]
      - [ 0.298526794, 0.121411823, 0.00609862991, 0.00777898962,
          0.0150182946, 0., 0.0121058729, 0.207176387, 0.232304275,
          0.0794224292, 0.123978935, 0., 0.101935171, 0., 0.0156063708,
          0.16929464, 0.185283259, 0.00424751639, 0., 0.00725916494,
          0.117571712, 0.113062046, 0.0930264369, 0.208205536,
          0.14813669, 0.00424751639, 0.00926127564, 0.059285339,
          0.070856683, 0.161351025, 0.0963917375, 0.262541711,
          0.158751771, 0.00520212343, 0., 0., 0., 0., 0.125104502,
          0.249739677, 0.226928443, 0., 0., 0., 0.110158741,
          0.0724019781, 0.10375677, 0.261773735, 0.183966935, 0.1239141,
          0.13040708, 0.112767361, 0., 0., 0.00682402682, 0.223585874,
          0.198264092, 0.144444436, 0.151392072, 0.101935603, 0., 0., 0.,
          0.126909688 ]
      - [ 0.31392476, 0.137898654, 0.0786677748, 0.00658224663,
          0.0135114044, 0.00553498743, 0.00937445089, 0.0965709165,
          0.255538255, 0.100535497, 0.0765768513, 0.0810561106,
          0.0993888378, 0., 0.00539109809, 0.143721879, 0.279431731,
          0.00539109856, 0.00553498743, 0., 0.0985163674, 0.120784022,
          0.0772606134, 0.150520191, 0.251456946, 0.00622510444,
          0.0743626878, 0.0654146224, 0.0758542418, 0.0852893889,
          0.0825330243, 0.199255154, 0.100997142, 0., 0., 0.00591020426,
          0.0794660598, 0.126709223, 0.112092778, 0.242733523,
          0.229833871, 0.0120682344, 0., 0.0369268656, 0.116774626,
          0.0956482962, 0.0883443281, 0.238692239, 0.219728649,
          0.118385233, 0.102917209, 0.0709177777, 0., 0., 0.00440181326,
          0.153882086, 0.281498283, 0.135724589, 0.0671031103,
          0.0280264765, 0.00465435116, 0., 0.0834488571, 0.164167061 ]
      - [ 0.294068694, 0.00917042512, 0., 0., 0.00715281582, 0.,
          0.0101322168, 0.208424076, 0.252474934, 0.101298638,
          0.00565208867, 0.0768106356, 0.0136964982, 0.0102735013,
          0.011584999, 0.195114568, 0.296514243, 0.00317840301,
          0.00845184363, 0.00823212788, 0.138629049, 0.0855689049,
          0.0681276247, 0.224438086, 0.196403399, 0.0044949404, 0.,
          0.00475282082, 0.00934212189, 0., 0.107116617, 0.174664825,
          0.237885207, 0.0044949404, 0.00717715453, 0., 0.00845184363,
          0.00565208867, 0., 0.206291929, 0.288364232, 0.0097056143, 0.,
          0., 0.0753589496, 0.0064538843, 0.112384468, 0.224917874,
          0.23728916, 0.0699120685, 0.112075135, 0.117642015,
          0.00672150403, 0.00565208867, 0.0119275944, 0.208590299,
          0.293948859, 0.0119961202, 0., 0.00672150403, 0., 0.,
          0.00965215825, 0.177711204 ]
      - [ 0.271797329, 0.184969917, 0.0658545792, 0.00990158692,
          0.0141918538, 0.0416397303, 0.00687280111, 0.0739342421,
          0.222725019, 0.162598103, 0.100426167, 0.104222126,
          0.0179885235, 0.00684038363, 0.101723924, 0.128521904,
          0.214225948, 0.120137669, 0.0124245007, 0.169804305,
          0.109973624, 0., 0.0758942664, 0.0535373576, 0.172072068,
          0.103738256, 0.0879889056, 0.00503744977, 0.054652065,
          0.0775819495, 0.117836915, 0.110808246, 0.299277931, 0., 0.,
          0., 0.00503744977, 0., 0.13398923, 0.171623617, 0.323745936,
          0.0238399934, 0., 0.00814207084, 0.134581849, 0.103766292,
          0.0836727992, 0.0815912932, 0.311750025, 0.0674291253,
          0.120109461, 0.0709677562, 0., 0., 0.00336874579,
          0.00503744977, 0.36706993, 0.13153924, 0., 0., 0., 0., 0.,
          0.0647836104 ]
      - [ 0.189365581, 0.152064666, 0.0996956155, 0., 0.011547571, 0.,
          0.0202032253, 0.216012135, 0.154509306, 0.11706084,
          0.136282697, 0.109282389, 0.0281310584, 0., 0.0221482236,
          0.239702895, 0.22850059, 0.0284950975, 0., 0.00447349949,
          0.104478598, 0.113976739, 0.104255371, 0.269433498, 0., 0.,
          0.00531991711, 0., 0.0965941697, 0.13103129, 0.13717781,
          0.222989902, 0.118697599, 0.110005856, 0., 0.0350019634,
          0.0126030529, 0.106472112, 0.110998467, 0.304276586,
          0.113126509, 0.0335144512, 0., 0.00632648356, 0.114415579,
          0.161031067, 0.0826445669, 0.216560483, 0.0642511472,
          0.123622231, 0.128793448, 0.0733154193, 0.113228388,
          0.00955351535, 0.0232201871, 0.220456064, 0.218247697,
          0.0921830684, 0.185148835, 0.00447349949, 0.0382504724,
          0.0172834899, 0.0254780781, 0.234020084 ]
      - [ 0.253122687, 0.160546988, 0.12935172, 0., 0.00977762509,
          0.0072374437, 0., 0.0783150271, 0.240457296, 0.166440755,
          0.121407978, 0.0692148954, 0.011350737, 0.00776777091,
          0.00761411106, 0.154198736, 0.288949043, 0.00813982729, 0., 0.,
          0.11914099, 0.154479191, 0.00287786359, 0.102565929,
          0.256642312, 0.00511764549, 0.0072374437, 0., 0., 0.0648766384,
          0.18894054, 0.0700967982, 0.244104072, 0., 0.010834299, 0.,
          0.0682999268, 0.12337222, 0.0932085142, 0.102459989,
          0.29913941, 0.0170470625, 0.0072374437, 0.15413022,
          0.0695965588, 0.114391685, 0.104244359, 0.129796594,
          0.276099056, 0.130520821, 0.0817466602, 0.128439784,
          0.109329194, 0.00584362634, 0., 0.0759122819, 0.307024747,
          0.104730137, 0.113140039, 0.0696855634, 0.00765266502, 0.,
          0.00287786359, 0. ]
      - [ 0.218548462, 0.165345609, 0.0378620401, 0., 0.00807271432,
          0.0068552047, 0.00678831665, 0.191757321, 0.222321779,
          0.0725980848, 0.0805602074, 0.151335537, 0.0820483491,
          0.00539854961, 0.0159581788, 0.224951968, 0.212829053,
          0.0199119747, 0.0286327042, 0.110163689, 0.109541968,
          0.103032619, 0.121176228, 0.227572262, 0.157012537, 0., 0.,
          0.00453962106, 0.00722045498, 0.132690117, 0.0966371149,
          0.247022957, 0.167397097, 0., 0., 0., 0.0385768898,
          0.0729652345, 0.0981282964, 0.270475596, 0.190776736,
          0.0416339636, 0., 0., 0.126268506, 0.0788802058, 0.135098264,
          0.213147238, 0.218105644, 0.121324293, 0.137551695,
          0.0629373565, 0.00722045498, 0., 0.017160641, 0.201286167,
          0.242745534, 0.149335817, 0.103298709, 0., 0.00807271432, 0.,
          0.00303582731, 0.157460108 ]
      - [ 0.2189551, 0.171938226, 0.132804617, 0.0982617065,
          0.00940239243, 0., 0.00597670535, 0.207347587, 0.130981073,
          0.0882377103, 0.169024527, 0.110470265, 0.00870492402, 0.,
          0.071897991, 0.178838059, 0.17681101, 0.0725798681, 0.,
          0.0310245417, 0.105485924, 0.15035376, 0.127064362,
          0.226348147, 0.050634671, 0.0425304398, 0., 0.0063195969,
          0.106079072, 0.0917678475, 0.166006133, 0.226015881,
          0.0146525707, 0.00597670581, 0., 0., 0.0713424608, 0.198343784,
          0.130260706, 0.189242244, 0.218920529, 0.0808865428,
          0.00674800202, 0.0044686296, 0.0725320801, 0.157680646,
          0.0769775361, 0.261347651, 0.0896505788, 0.144876406,
          0.111931212, 0.104937412, 0.0100515811, 0.0181807596,
          0.108362503, 0.203538716, 0.158810526, 0.203114435,
          0.121875107, 0.0939902142, 0.0112380087, 0., 0.0390740447,
          0.231250688 ]
      - [ 0.242713541, 0.172790274, 0.127008304, 0.106602035,
          0.0130292559, 0., 0.136457324, 0.127357066, 0.145700172,
          0.135966077, 0.0942188948, 0.0701799318, 0.0108913351,
          0.00686617009, 0.00895605609, 0.177423343, 0.182658911,
          0.0964089707, 0., 0.00442443229, 0.014216518, 0., 0.191541791,
          0.145578578, 0.128123447, 0.136486143, 0., 0.0076633417,
          0.070327729, 0.126480594, 0.197757989, 0.204764292,
          0.224389836, 0.0107344696, 0.00668126019, 0.00442443229,
          0.0997476131, 0.0662274882, 0.149852425, 0.21519959,
          0.238060281, 0.00732151465, 0., 0.112072445, 0.173584864,
          0.0819521546, 0.0484685116, 0.132663876, 0.206887051,
          0.107555516, 0.12625502, 0.132503569, 0.0707864091,
          0.0837566778, 0.0473472662, 0.112412415, 0.284078509,
          0.135278091, 0.163205221, 0.00714471284, 0.0134359468, 0.,
          0.0102495709, 0.158679754 ]
      - [ 0.15587543, 0.186169699, 0.102871276, 0.107352182,
          0.0220223516, 0.00520686386, 0.0141043775, 0.224649817,
          0.119204268, 0.1370496, 0.126513988, 0.0707500279, 0.106568322,
          0.0294090603, 0.00520686386, 0.246428147, 0.206591278,
          0.0484803654, 0., 0., 0.157500878, 0.0793929175, 0.0992573723,
          0.24907276, 0.0065893759, 0.00292803464, 0., 0., 0.140147448,
          0.126581252, 0.197716609, 0.17357102, 0.192767352,
          0.0291722417, 0., 0., 0.135599419, 0.114678495, 0.191275597,
          0.206207678, 0.188290954, 0.0187981967, 0., 0., 0.0645783618,
          0.16730468, 0.0946236998, 0.155695364, 0.204559222,
          0.0767320469, 0.0487436354, 0.130430758, 0.00931878481, 0., 0.,
          0.192675218, 0.235982478, 0.16063267, 0.0966874287,
          0.132696718, 0.0104461191, 0., 0.0197016839, 0.157224074 ]
      - [ 0.206399664, 0.0976968557, 0.00602167472, 0., 0.0631376803,
          0.0173514988, 0.044779893, 0.267331511, 0.145870358,
          0.099665828, 0.157580882, 0.00627137208, 0.0581761934,
          0.0550070368, 0.00602167472, 0.229072973, 0.161038607,
          0.0924916416, 0.0461380333, 0.00443452969, 0.173771247,
          0.127150387, 0.139396667, 0.182578325, 0.149859861,
          0.0954456776, 0., 0., 0.0388862155, 0.146530867, 0.129721954,
          0.231996, 0.154630944, 0.106022768, 0., 0.00563107012,
          0.0109161912, 0., 0.133894548, 0.265355736, 0.156411812,
          0.11666666, 0., 0., 0.0213611256, 0.15506269, 0.096730426,
          0.244200364, 0.0959448665, 0.176294416, 0.09043625,
          0.112039261, 0.00863849744, 0.012393102, 0.0216305293,
          0.181239769, 0.212706551, 0.218602002, 0.0453848727,
          0.00443452969, 0.0138968397, 0., 0.0647999644, 0.211693317 ]
      - [ 0.232324556, 0.164680436, 0.116762228, 0.0874644145,
          0.00909275748, 0.00751361111, 0., 0.173572123, 0.171775579,
          0.14334175, 0.104926743, 0.107013859, 0.00870295707,
          0.00606660778, 0.011685241, 0.198776796, 0.192405388,
          0.047516074, 0.00857947953, 0., 0.132392541, 0.0919149816,
          0.103528984, 0.248192117, 0.0136212679, 0.0100367209, 0., 0.,
          0.0117838597, 0.190187573, 0.173972264, 0.207547694,
          0.194338799, 0.0536080599, 0.033499036, 0., 0.138611361,
          0.132790729, 0.0958031416, 0.296657026, 0.104375027, 0., 0.,
          0.00446762005, 0.13196364, 0.132247761, 0.114631318,
          0.146731392, 0.0817303881, 0., 0.0903089419, 0.153946847,
          0.0801589042, 0., 0.0177504811, 0.252835125, 0.142025486,
          0.182999402, 0.159228101, 0., 0., 0., 0.0259102266,
          0.249653414 ]
      - [ 0.316973448, 0.0126206167, 0., 0.00586336711, 0.00636032596,
          0., 0.00617577136, 0.233085454, 0.170610726, 0.145376578,
          0.0832487047, 0.0713881254, 0.0107371574, 0., 0.0194511916,
          0.186590776, 0.262140095, 0.00617577136, 0.00887534767,
          0.00461746613, 0.0675812662, 0.0873110816, 0.136998534,
          0.219678506, 0.186976016, 0., 0., 0., 0.00367213576, 0.,
          0.106507957, 0.236755788, 0.179904491, 0., 0., 0.,
          0.00367213576, 0., 0.147537336, 0.250413597, 0.21416983,
          0.00701587601, 0., 0., 0.11214529, 0.112867482, 0.0686797574,
          0.234196901, 0.2326857, 0.089770481, 0.142936409, 0.066196844,
          0.00636032596, 0.0222216304, 0.0103166252, 0.227545351,
          0.233750537, 0.167901844, 0.00627008546, 0., 0., 0., 0.,
          0.164165348 ]
      - [ 0.27384904, 0.0937926546, 0.0873719305, 0.123448811,
          0.00890691392, 0.00690458342, 0.00432423363, 0.182692036,
          0.13819544, 0.178506374, 0.108877324, 0.108364649,
          0.0131106228, 0., 0.0122777419, 0.199685901, 0.215935543,
          0.011076753, 0.038507171, 0.110797763, 0.043227002,
          0.115734734, 0.159584865, 0.198290393, 0.163312539,
          0.00873574242, 0.00620878162, 0.00791949127, 0.0118281785, 0.,
          0.130612686, 0.269161791, 0.144194216, 0.015288475, 0.,
          0.0473333783, 0.00988170225, 0.0958513245, 0.122428805,
          0.319974214, 0.109334514, 0.00623820536, 0., 0., 0.0685579628,
          0.0946080908, 0.145137012, 0.214631781, 0.180838987,
          0.0595257245, 0.111242227, 0.111112319, 0.00914464053,
          0.00709567405, 0.0106121665, 0.164036185, 0.294578731,
          0.149497092, 0.0368195251, 0.00457232026, 0.00580603955, 0.,
          0.00864846725, 0.215801343 ]
      - [ 0.164274439, 0.152100086, 0.143410146, 0., 0.0113215195, 0.,
          0.0143128792, 0.257328421, 0.0932616144, 0.0973961353,
          0.11101681, 0.113101393, 0.111945942, 0.0165642127,
          0.0112517392, 0.271951407, 0.12379884, 0., 0.0314880386,
          0.111056358, 0.110087603, 0.0980827212, 0.109496146,
          0.274651349, 0.0930489302, 0.00609988393, 0.00619303901, 0.,
          0.00686372165, 0.0871956497, 0.134918973, 0.307029039,
          0.10322804, 0.0401622206, 0., 0., 0., 0.136534229, 0.183553457,
          0.217447713, 0.18796517, 0.0390325114, 0., 0., 0.109077051,
          0.0992879942, 0.10251262, 0.231177434, 0.0792834461,
          0.148763016, 0.132923469, 0., 0., 0., 0.00942399632,
          0.161702886, 0.259625793, 0.182235137, 0., 0., 0.0341814756,
          0., 0.0325750969, 0.237253606 ]
      - [ 0.216059268, 0.130290374, 0.0913563371, 0., 0.0064785229, 0.,
          0.0108377347, 0.188688919, 0.20209305, 0.103969961,
          0.123148918, 0.0689048022, 0.109416962, 0.00511926878,
          0.0129753398, 0.231386304, 0.267796963, 0.00287877629, 0., 0.,
          0.118232287, 0.132263988, 0.0797790214, 0.128347471,
          0.244507998, 0., 0., 0., 0.0968610644, 0.123189777,
          0.0920769274, 0.168375015, 0.173135996, 0.00407120446, 0.,
          0.00430477457, 0.0704314187, 0.0451520309, 0.146952391,
          0.208709061, 0.231840983, 0., 0., 0.10901726, 0.128556132,
          0.0923628137, 0.123023756, 0.214637935, 0.254082739,
          0.159924552, 0.122270957, 0.0698946193, 0.108938865,
          0.00874103047, 0., 0., 0.293206036, 0.155905947, 0.130213201,
          0.0674628466, 0., 0., 0., 0. ]
      - [ 0.156716898, 0.191255808, 0.133482069, 0.0044545834,
          0.00354259973, 0.00691296067, 0., 0.224334106, 0.17019175,
          0.0841197744, 0., 0.123095289, 0.112606212, 0., 0.0181667767,
          0.239313945, 0.191056877, 0., 0., 0.00980870426, 0.130702913,
          0.112835668, 0.10991168, 0.205928713, 0.159777477,
          0.00749168638, 0., 0., 0.1105332, 0.173875168, 0.108074456,
          0.234729797, 0., 0.117489815, 0., 0., 0., 0.133325458,
          0.165497616, 0.273402989, 0.139248788, 0., 0., 0., 0.123868614,
          0.0949720815, 0.083292447, 0.244294882, 0.153051898,
          0.104740031, 0.144289374, 0.106653601, 0., 0., 0.00607757177,
          0.215866834, 0.215651438, 0.164064527, 0.118743204,
          0.0902476534, 0., 0., 0.108907297, 0.169130653 ]
      - [ 0.215206593, 0.100977793, 0.134056777, 0., 0.00942248292,
          0.00549233891, 0.00882394891, 0.195519403, 0.183965951,
          0.101673044, 0.0919635743, 0.0960196927, 0.067508094, 0.,
          0.0286308285, 0.222779155, 0.223490223, 0.0293488428, 0.,
          0.0334571376, 0.117555365, 0.0797460154, 0.138253495,
          0.251193345, 0.0667225718, 0.00756541826, 0., 0.00781543739,
          0.00821296219, 0.126642421, 0.143858194, 0.207924664, 0., 0.,
          0., 0., 0.0591460541, 0.114346206, 0.130918384, 0.308860481,
          0.117247045, 0., 0., 0., 0.121610858, 0.110991366, 0.121705554,
          0.281601489, 0.112956561, 0.0526034683, 0.159269869,
          0.11730393, 0.00367294834, 0., 0.00534955831, 0.254189521,
          0.213104859, 0.150156274, 0.0787946209, 0.0771744847, 0., 0.,
          0.00873579271, 0.260232508 ]
      - [ 0.266554326, 0.121007733, 0.137822285, 0.102739982,
          0.00838718098, 0.00560884643, 0.00315408595, 0.107705191,
          0.216646433, 0.130795732, 0.0779857486, 0.127441034,
          0.0338112302, 0., 0.0115820616, 0.164849788, 0.28396979,
          0.0413299091, 0., 0.0221005715, 0.116304711, 0.114460431,
          0.101523429, 0.0813606828, 0.240058169, 0., 0., 0.,
          0.00375086162, 0.0849899277, 0.117552072, 0.16852963,
          0.217401341, 0.0459206104, 0., 0., 0.129264861, 0.082891278,
          0.114275657, 0.245054349, 0.230650559, 0.00897614285, 0., 0.,
          0.129577309, 0.0822422728, 0.0995460078, 0.166395992,
          0.278802454, 0.0784329474, 0.0933752134, 0.140443355, 0., 0.,
          0., 0., 0.348573059, 0.138862938, 0.0683546439, 0., 0., 0.,
          0.0370953344, 0.0713684112 ]
      - [ 0.29648599, 0.125121906, 0.00531234453, 0.00567246834,
          0.0100482106, 0., 0.0029873508, 0.0769501999, 0.287730366,
          0.105661295, 0.0958392844, 0.129323393, 0.0118523361,
          0.0117703807, 0.0447710454, 0.159556106, 0.290919423,
          0.0138349058, 0., 0.0769392326, 0.0834330395, 0.129643157,
          0.118143395, 0.128526062, 0.224339858, 0.0103484867, 0., 0.,
          0.0609989166, 0.126818389, 0.128713354, 0.129480764,
          0.251884222, 0.0029873508, 0.00606594468, 0., 0.00615324732,
          0., 0.129669935, 0.17501694, 0.281744242, 0.00678745424,
          0.00606594468, 0.106607221, 0.0741597712, 0.0947218984,
          0.132623181, 0.126216725, 0.257012546, 0.0875882879,
          0.145177558, 0.110494249, 0.00446713157, 0., 0.00676165288, 0.,
          0.30652675, 0.17419976, 0.0911044404, 0.0686006173, 0., 0., 0.,
          0. ]
      - [ 0.178738087, 0.184458122, 0.0501565225, 0., 0.0172160082, 0.,
          0.00299416273, 0.257541507, 0.102035917, 0.0949495211,
          0.11109475, 0.147601798, 0.0802536458, 0., 0.0171721578,
          0.246406972, 0.113607444, 0.00299416273, 0., 0.0368423313,
          0.170936242, 0.0828160495, 0.0701324344, 0.29726398,
          0.0315254666, 0.00532445824, 0., 0.00850979146, 0.00796192233,
          0.124772303, 0.102286138, 0.303540498, 0.0499922894,
          0.0399776548, 0., 0., 0., 0., 0.178417832, 0.284523338,
          0.113551632, 0., 0., 0.0340398028, 0.126524061, 0.0824164972,
          0.0647044778, 0.286813557, 0.100601383, 0.0963681415,
          0.109930195, 0.122493967, 0., 0., 0.01686823, 0.219689131,
          0.219148561, 0.176773071, 0., 0., 0.00503556151, 0., 0.,
          0.257644206 ]
      - [ 0.280911326, 0.162082002, 0.119773664, 0., 0.0106833261,
          0.0317891352, 0.0333944857, 0.167601556, 0.213368922,
          0.103736527, 0.116911218, 0.116070747, 0.00747878058, 0.,
          0.00889381859, 0.165338069, 0.232867613, 0.00770227285, 0., 0.,
          0.113601997, 0.109306015, 0.129189774, 0.10369356, 0.191925719,
          0.0647785813, 0., 0., 0.00836153049, 0.0402841046, 0.182254687,
          0.233062625, 0.225121275, 0.0044469093, 0., 0., 0.00373939029,
          0.143460125, 0.141841754, 0.201402083, 0.260772794,
          0.017821081, 0., 0., 0.13281472, 0.0970735624, 0.112905808,
          0.144726396, 0.115027547, 0.118304282, 0.131620824,
          0.109254815, 0.00373939029, 0.00559169287, 0.00770227332,
          0.128610089, 0.28762573, 0.209607676, 0., 0., 0.00528829638,
          0., 0.0129767563, 0.203358576 ]
      - [ 0.28507489, 0.134357274, 0.138329402, 0.00663056225,
          0.012457381, 0., 0.00313539919, 0.162623584, 0.220566511,
          0.108451314, 0.128452286, 0., 0.0115223452, 0.00708004786,
          0.0469679981, 0.155399472, 0.241001651, 0.0247530155,
          0.0151805785, 0.00468851533, 0.068103008, 0.124910071,
          0.101503275, 0.110941656, 0.213425428, 0.00543067092,
          0.00901191216, 0.00468851533, 0.0139897037, 0.0418345146,
          0.218965575, 0.191252977, 0.212859765, 0.0268801376,
          0.0342345238, 0.0353983529, 0.0037286391, 0.0639521554,
          0.182370394, 0.198223606, 0.255886793, 0.00839109067,
          0.0334756151, 0.076823771, 0.0951746851, 0.132464662,
          0.156115234, 0.12505582, 0.154843032, 0.0825070515, 0.16995813,
          0.0727468133, 0.122670576, 0., 0.00627079839, 0.0524119809,
          0.3036789, 0.215678692, 0.0297017656, 0.00595358666,
          0.0380457118, 0., 0.0502330437, 0.163608491 ]
      - [ 0.257689655, 0.19584401, 0., 0.0138309719, 0.0285548549, 0.,
          0.0306161605, 0.157760143, 0.212551311, 0.114711143,
          0.163692683, 0., 0.0036778599, 0.00627985923, 0.0116533786,
          0.181809649, 0.23030448, 0.0154763665, 0.0204497129, 0.,
          0.0714468881, 0.125436172, 0.0838001892, 0.183417529,
          0.169678554, 0.0124188401, 0., 0.00654026261, 0.0117244022,
          0.0155348768, 0.181387067, 0.236181512, 0.199744388,
          0.0271737296, 0., 0.0247434974, 0.0101265712, 0.0713652298,
          0.172926113, 0.199295014, 0.26108709, 0., 0., 0., 0.11847315,
          0.12531653, 0.107395574, 0.198497206, 0.254241467, 0.110172465,
          0.0994746611, 0.0728572905, 0.116362058, 0., 0.0418494083,
          0.147618607, 0.253635049, 0.241362303, 0., 0.00950042903,
          0.0116304141, 0., 0., 0. ]
      - [ 0.322112024, 0.164080933, 0.0879513249, 0.00472483225,
          0.0106278742, 0.0271856077, 0.0242506526, 0.18702139,
          0.175225139, 0.109508626, 0.129654408, 0.118266605,
          0.0216094945, 0.00852844957, 0.0393225513, 0.0115734283,
          0.256638139, 0.0271380227, 0.00852844957, 0.116288036,
          0.0851892754, 0.097754322, 0.101822205, 0.15775083,
          0.204429582, 0.0138758002, 0., 0.00818364974, 0.0106278742,
          0.0496716835, 0.195925042, 0.202545524, 0.225305617, 0.,
          0.0192476362, 0., 0.0392552353, 0.16137217, 0.149252072,
          0.218670994, 0.222401202, 0.0495548546, 0., 0.0179303437,
          0.0617318861, 0.0949687138, 0.162959099, 0.0796547756,
          0.259749323, 0.110204056, 0.102027014, 0.074220337, 0., 0.,
          0.0519626513, 0.100676976, 0.3234303, 0.170946732,
          0.0642184243, 0., 0.00531393709, 0., 0., 0. ]
      - [ 0.296691209, 0.190611824, 0.0973943472, 0.0938975811,
          0.00775476173, 0., 0., 0.0516856313, 0.255478531, 0.0721816644,
          0.118805557, 0.00644290494, 0.0105938138, 0., 0.00806070864,
          0.0819484368, 0.295510441, 0., 0.00766194845, 0., 0.0771513432,
          0.102572739, 0.0763801783, 0.112572983, 0.264189065,
          0.0107659008, 0., 0., 0.0105938138, 0.0424452312, 0.125998259,
          0.178052649, 0.215466097, 0., 0., 0.0518753752, 0.126431242,
          0.111460052, 0.14711915, 0.123305961, 0.296699852,
          0.00861726049, 0.0250526052, 0.110568285, 0.131737575,
          0.0923527107, 0.0681533813, 0.138593048, 0.281697541,
          0.108954303, 0.0654782951, 0.160950646, 0., 0.00541781588,
          0.00527697289, 0.10881409, 0.346145213, 0.0557705164, 0., 0.,
          0., 0., 0., 0. ]
      - [ 0.269578069, 0.148682266, 0., 0., 0.0118846698, 0.,
          0.00683025038, 0.204064965, 0.229551017, 0.0054318984,
          0.0903092995, 0.12146277, 0.113726512, 0.0116598466,
          0.0371877328, 0.199305698, 0.259712964, 0.0246401764,
          0.0054318984, 0.107950725, 0.0125834504, 0.124216199,
          0.133807555, 0.109094054, 0.24948363, 0., 0., 0.00456766365,
          0.0130643221, 0.108953126, 0.140946537, 0.197818518,
          0.173915252, 0.0190789867, 0., 0., 0., 0.0510812551,
          0.11886774, 0.272903144, 0.20147644, 0.00529068941, 0., 0.,
          0.0560810678, 0.107930496, 0.10435465, 0.221214101,
          0.259479761, 0.0793164074, 0.111348115, 0., 0., 0.,
          0.00431982987, 0.116048194, 0.302100122, 0.122844212,
          0.12793839, 0.0495009497, 0., 0., 0., 0.115763053 ]
      - [ 0.286687076, 0.166396365, 0.0332672819, 0., 0.010694108,
          0.00546910753, 0.00615101028, 0.151031554, 0.273405075,
          0.025210144, 0.0838243365, 0.13349086, 0.017033482, 0.,
          0.00532693136, 0.164830819, 0.282464534, 0.00937165692, 0.,
          0.00459895283, 0.128017381, 0.090377517, 0.0615893453,
          0.111961275, 0.261257589, 0., 0., 0.0420364402, 0., 0.11266233,
          0.181378931, 0.132027254, 0.179548874, 0., 0., 0., 0.,
          0.0579316653, 0.104841374, 0.209763974, 0.267746776,
          0.0161667503, 0., 0.0058398582, 0.126972035, 0.0887028277, 0.,
          0.244858906, 0.28076604, 0.0844985694, 0.0700238273,
          0.108717874, 0., 0., 0.00627454137, 0.0784923807, 0.307998061,
          0.136983857, 0.10192284, 0.0710858852, 0., 0., 0., 0. ]
      - [ 0.278103054, 0.152173832, 0., 0.00881142169, 0.0104280943, 0.,
          0.00536986161, 0.198023245, 0.209178478, 0.0925738439,
          0.112748452, 0.109083593, 0.0110606644, 0., 0.00536986161,
          0.154922828, 0.276747346, 0.0360950977, 0.00779681932,
          0.00463601621, 0.11082086, 0.112879589, 0.138293415,
          0.00463601621, 0.246290654, 0., 0., 0., 0.00463601621,
          0.0959531218, 0.159653947, 0.152362317, 0.28956148,
          0.00620058179, 0., 0., 0., 0., 0.163178757, 0.176259041,
          0.285664201, 0.00876894686, 0., 0., 0.13501288, 0.0848557577,
          0.00704406155, 0.132380232, 0.233615622, 0.0887930393,
          0.069968693, 0.114966325, 0., 0.0342582054, 0.0287648905,
          0.13790299, 0.29503119, 0.156422421, 0.103618219, 0.,
          0.0366510451, 0., 0., 0.163715899 ]
      - [ 0.210993141, 0.156277671, 0.00864838995, 0.00455459161,
          0.00809933618, 0., 0.00304583902, 0.273012817, 0.13553448,
          0.120147087, 0.114573188, 0.080653362, 0.00809933618, 0.,
          0.014668026, 0.244022995, 0.115681663, 0.0310732909, 0.,
          0.0401137546, 0.13249208, 0.0905971378, 0.0779656768,
          0.284200311, 0.0226322748, 0.00304583902, 0., 0.,
          0.00724426657, 0.0959755108, 0.14699392, 0.303055704,
          0.149381101, 0., 0., 0., 0., 0., 0.153515086, 0.301669449,
          0.111170582, 0., 0., 0., 0.053203579, 0.145167351,
          0.0746885464, 0.271366835, 0.104424164, 0.0914599597,
          0.07658232, 0.132974818, 0.0381611548, 0., 0.00609167805,
          0.206838608, 0.194743454, 0.220603123, 0.0536287837, 0., 0.,
          0., 0., 0.251711637 ]
      - [ 0.270339191, 0.168480068, 0.0159588642, 0., 0.00797582231,
          0.00754306745, 0., 0.177420825, 0.225512221, 0.101208016,
          0.127763465, 0.107450403, 0.0118926298, 0.00533375423,
          0.0100209611, 0.170996726, 0.280518919, 0.00424177852,
          0.00677292561, 0., 0.149453282, 0.0927694067, 0.0827162191,
          0.128078729, 0.254802257, 0., 0., 0., 0.00504435319,
          0.00996834226, 0.155704454, 0.170825407, 0.211592585, 0., 0.,
          0., 0., 0., 0.168519437, 0.235609353, 0.215775311, 0., 0., 0.,
          0.106929012, 0.105645232, 0.148273572, 0.168219656, 0.263163,
          0.134423673, 0.113629498, 0.115832888, 0., 0., 0.00299939024,
          0.0287640411, 0.320257694, 0.143956989, 0.104331464, 0., 0.,
          0., 0., 0. ]
      - [ 0.242112502, 0.101752952, 0.0655758157, 0., 0.00735569187,
          0.00717687747, 0.0210375246, 0.242286414, 0.139869571,
          0.110004112, 0.0776398182, 0.116505943, 0.122164711,
          0.00888914801, 0.00757550588, 0.235660329, 0.211204484,
          0.0100139026, 0.0129259294, 0., 0.154968798, 0.104529932,
          0.113567054, 0.180321783, 0.184661329, 0.0198818035,
          0.00549966237, 0.00654023746, 0.0136345522, 0., 0.126037076,
          0.245801583, 0.183819145, 0., 0., 0., 0.0564082377,
          0.127074331, 0.119731978, 0.233135775, 0.233550876,
          0.00874744076, 0., 0.0416876376, 0.104246587, 0.0752579942,
          0.085667856, 0.229142681, 0.243845642, 0.0860492066,
          0.0790478885, 0.119135804, 0., 0., 0.00535669131, 0.138567418,
          0.301046729, 0.153625786, 0.0821215287, 0., 0., 0., 0.,
          0.165141344 ]
      - [ 0.283738852, 0.175670445, 0.0820580721, 0.00686320662,
          0.0102111837, 0.0498742983, 0.0507390536, 0.153980181,
          0.198863745, 0.133150116, 0.115197144, 0.00485301996,
          0.00945371948, 0.00577124581, 0.0200384296, 0.168322533,
          0.269512504, 0.0162270498, 0., 0., 0.0735795796, 0.0969067514,
          0.0727390423, 0.19564788, 0.173214018, 0.027539622,
          0.0299253426, 0.00970603991, 0.00990096666, 0.00816177391,
          0.185436875, 0.214632869, 0.19598487, 0.0563399084, 0., 0.,
          0.00725695724, 0.102536485, 0.168722168, 0.225780889,
          0.233257473, 0.0277044382, 0., 0.126995683, 0.0778260157,
          0.097261712, 0.101143576, 0.169456154, 0.187739134,
          0.106340997, 0.0962637216, 0.0775699466, 0.121177696, 0.,
          0.00562121486, 0.0401952788, 0.340807229, 0.172527015, 0.,
          0.00616247812, 0.00616247812, 0., 0., 0.168471411 ]
      - [ 0.260560155, 0.190192655, 0.0165768918, 0., 0.0108903134, 0.,
          0.0151948249, 0.155681953, 0.229929522, 0.0987730026,
          0.0616632327, 0.116920233, 0.00770061463, 0.0520812534,
          0.012167546, 0.185213208, 0.25956136, 0., 0.0138754463,
          0.00968301017, 0.120107047, 0.114711314, 0.103462808,
          0.117756926, 0.220045596, 0., 0.0134521574, 0.00484150508,
          0.0131030083, 0.0187370013, 0.159659788, 0.2320669,
          0.230861947, 0.00323770964, 0., 0., 0.0677922815, 0.0924509466,
          0.162886485, 0.217747778, 0.244281679, 0.0516995601, 0., 0.,
          0.0785613209, 0.103557155, 0.168975487, 0.0927599818,
          0.178839192, 0.107038707, 0.10962218, 0.118894145,
          0.0124409059, 0.0488850512, 0.0507561937, 0.154766887,
          0.28129974, 0.204390943, 0., 0., 0., 0., 0.00560787739,
          0.170429274 ]
      - [ 0.330749333, 0.114108548, 0.0892804265, 0.0171350762,
          0.0115375854, 0., 0.0184037443, 0.0502125546, 0.273234904,
          0.071032919, 0.0963335186, 0.124087147, 0.0102924621, 0.,
          0.0333449058, 0.123636767, 0.243380547, 0.00723137986,
          0.00656671869, 0., 0.118343063, 0.106351554, 0.0791862831,
          0.198640123, 0.167643681, 0.00723137986, 0., 0.00995314121,
          0.00859960914, 0.0116774607, 0.188907966, 0.233140856,
          0.237169683, 0., 0., 0., 0., 0., 0.19512254, 0.244239688,
          0.231736153, 0.0175047871, 0., 0., 0.0681793243, 0.0928217322,
          0.152337506, 0.113659739, 0.185929433, 0.0991647616,
          0.0647995621, 0.117465839, 0.00384586188, 0., 0.0312105529,
          0.0801823288, 0.320280522, 0.184390649, 0., 0., 0., 0., 0.,
          0.18107982 ]
      - [ 0.268430501, 0.192936018, 0.10462293, 0.00805792306,
          0.0164272245, 0.0128717301, 0.0511207394, 0.160569325,
          0.212083086, 0.0802517906, 0.130112082, 0.127975121,
          0.011179653, 0., 0.0593140796, 0.158994481, 0.259794772,
          0.043959491, 0.00721970573, 0.116372861, 0.0128164608,
          0.135309577, 0.0941111371, 0.115224101, 0.232781008,
          0.0116408318, 0., 0., 0.012343483, 0.0164835807, 0.14989306,
          0.226137325, 0.200441182, 0., 0., 0., 0., 0.112449452,
          0.161763892, 0.214960486, 0.248641655, 0.0196902473, 0., 0.,
          0.0969493464, 0.0748645514, 0.106738813, 0.176017627,
          0.265319645, 0.0813628659, 0.136475191, 0., 0., 0.,
          0.00311114313, 0.167294577, 0.280988455, 0.194606319, 0., 0.,
          0., 0., 0., 0. ]
      - [ 0.224279627, 0.153032154, 0.00607214216, 0., 0.00940884277,
          0.00531777181, 0.0320070945, 0.252640247, 0.151559278,
          0.129615873, 0.12497025, 0., 0.0913469791, 0.0069395164,
          0.0144675924, 0.231905699, 0.181594014, 0.00299040298,
          0.00531777181, 0.0249541495, 0.17351009, 0.0837414414,
          0.0721798539, 0.232622102, 0.149257571, 0., 0., 0.0289015453,
          0.00567826349, 0.120295018, 0.152882561, 0.249844253,
          0.169476658, 0., 0., 0.0279440712, 0., 0.068062, 0.126624674,
          0.286696583, 0.157741994, 0., 0., 0., 0.0363173783,
          0.147665918, 0.0734530389, 0.251472831, 0.137065247,
          0.0959224105, 0.108829401, 0.108093455, 0., 0., 0.00422906829,
          0.226481512, 0.188753724, 0.185746416, 0.124326587, 0., 0., 0.,
          0., 0.22933726 ]
      - [ 0.293852448, 0.131951168, 0.148844138, 0., 0.0312287267, 0.,
          0.00839618128, 0.105316259, 0.21572569, 0.101454467,
          0.119514398, 0.111697406, 0.0601353087, 0., 0., 0.121291354,
          0.280455679, 0.00593699701, 0., 0.0514237136, 0.147424936,
          0.0679662004, 0.0896971002, 0.0643075779, 0.276113629,
          0.00727130659, 0., 0., 0.103579126, 0.0953963995, 0.0728722587,
          0.188695088, 0.186854467, 0., 0.00746537885, 0., 0.10512159,
          0.129767597, 0.129222974, 0.14468953, 0.287115246,
          0.0462305397, 0.0278505795, 0.0581104942, 0.100013249,
          0.125898704, 0.0932371691, 0.169297501, 0.27181989,
          0.105394371, 0.0934809372, 0.137144685, 0.010322026, 0.,
          0.00602766452, 0.121267796, 0.297506064, 0.126386896,
          0.137102574, 0., 0.00499239936, 0., 0., 0. ]
      - [ 0.175830856, 0.106846318, 0.191107124, 0.100503124,
          0.00694026472, 0., 0.00412670616, 0.159321874, 0.198188737,
          0.108133018, 0.11113926, 0.116448544, 0.00953466445, 0.,
          0.00583604351, 0.242473468, 0.110804379, 0., 0.00886143465, 0.,
          0.11105033, 0.166316822, 0.0396298617, 0.220878914,
          0.138014019, 0.0778178349, 0.0180065501, 0., 0.0764626935,
          0.130567491, 0.0992588103, 0.297220111, 0.160752222,
          0.10953214, 0.0220728405, 0.00436346047, 0.107986055,
          0.175522923, 0.11666242, 0.275937587, 0.109405518,
          0.00505416188, 0., 0., 0.148167953, 0.0563077815, 0.176206678,
          0.121178024, 0.108249433, 0.0904788375, 0.158143088,
          0.0567837507, 0.00775945187, 0., 0.00772036007, 0.248540908,
          0.168157861, 0.156045586, 0.151120916, 0., 0.00490750838, 0.,
          0.00991440751, 0.248064652 ]
      - [ 0.132051915, 0.157798484, 0.105643243, 0.107398421,
          0.0392416827, 0., 0.00782777276, 0.245207191, 0.0816342905,
          0.0938826799, 0.103770867, 0.132045969, 0.0784041956, 0.,
          0.0050096591, 0.268826962, 0.146788076, 0.131557524, 0., 0.,
          0.0633529499, 0.157189324, 0.0898964852, 0.275082558,
          0.00486429688, 0., 0., 0.00432503922, 0.00486429688,
          0.12826845, 0.182770401, 0.210276514, 0.00972859375,
          0.0050096591, 0., 0.0773333088, 0.10753981, 0.175375208,
          0.114074513, 0.274876177, 0.102907792, 0.0050096591, 0., 0.,
          0.107836045, 0.12687768, 0.113770373, 0.251763791,
          0.0358557105, 0.0708983913, 0.16532889, 0.110403247,
          0.00486429688, 0., 0.0950126797, 0.202417046, 0.18279396,
          0.187301964, 0.13009207, 0., 0.0108768977, 0.0108768977,
          0.022231698, 0.268286139 ]
      - [ 0.179897204, 0.194195673, 0.0890737996, 0.0859148353,
          0.00772381015, 0.00516522303, 0.00410775095, 0.246379673,
          0.101721764, 0.142624065, 0.0891288817, 0.0596368387,
          0.00951072946, 0., 0.00649492443, 0.22010377, 0.142405599,
          0.0913648158, 0.00730472896, 0.00551537378, 0.0658235475,
          0.111783102, 0.112551711, 0.277482331, 0.00598283764, 0., 0.,
          0.00614252035, 0.0112360278, 0.110079817, 0.167195037,
          0.254592031, 0.0106919063, 0.00711483322, 0., 0., 0.0786358193,
          0.119080327, 0.0966816247, 0.298168391, 0.110295422,
          0.00503094681, 0., 0.077815406, 0.148217574, 0.117697001,
          0.0984495431, 0.277237773, 0.0758966357, 0.103516452,
          0.113984913, 0.108989112, 0.13427642, 0.0192770027,
          0.00918520987, 0.291736186, 0.133740097, 0.0959747434,
          0.120139264, 0.0627627149, 0.00690838601, 0., 0.0082155019,
          0.269842148 ]
      - [ 0.224571496, 0.150835708, 0.0981774181, 0.0606874935,
          0.0721483529, 0.0296712872, 0.0456504449, 0.248758972,
          0.0793121383, 0.0983860567, 0.111102559, 0.111940056,
          0.0107269669, 0.00625257939, 0.0362230837, 0.21784091,
          0.189696267, 0.0108608175, 0., 0.00651185121, 0.026056014,
          0.162766904, 0.0850973129, 0.24437359, 0.107195452,
          0.0341730267, 0.030975759, 0.00651185121, 0.0924262255,
          0.00831138063, 0.115552783, 0.276688755, 0.104393855, 0., 0.,
          0., 0.109123148, 0.0775685906, 0.10999082, 0.309727848,
          0.131442159, 0., 0., 0., 0.111041039, 0.107463337,
          0.0932658687, 0.259322882, 0.148992658, 0.107034273,
          0.118471593, 0.112431623, 0.00366188306, 0., 0., 0.253170878,
          0.236236826, 0.122763894, 0., 0., 0., 0., 0.00435473723,
          0.248851046 ]
      - [ 0.29789868, 0.189166039, 0.146678433, 0.00672443444,
          0.0228703152, 0., 0.0090217758, 0.103157692, 0.225549504,
          0.103556439, 0.118185878, 0.0405173749, 0.0118610896,
          0.00811702665, 0.00950978603, 0.00635957764, 0.298859715,
          0.00811702665, 0.00972031429, 0., 0.0408032276, 0.0931926519,
          0.0993518606, 0.186339617, 0.217837706, 0.00850581098, 0.,
          0.00449690036, 0.0624701679, 0.158158794, 0.119908392,
          0.157997772, 0.195069328, 0., 0.0476248264, 0.0195333064,
          0.0688847676, 0.0872447044, 0.232262745, 0.123450972,
          0.253293365, 0.0377645418, 0., 0., 0.0420513898, 0.114737272,
          0.148101017, 0.122752905, 0.195504695, 0.0889540166,
          0.143366516, 0., 0., 0., 0.0629768372, 0.223156318,
          0.233748496, 0.185778946, 0.111866362, 0.0635388568, 0., 0.,
          0.0492824428, 0.191179037 ]
      - [ 0.202678204, 0.12062183, 0.151455015, 0.0316303633,
          0.00796112232, 0.0184745453, 0., 0.159762993, 0.213129535,
          0.12969026, 0.0944522321, 0.0815594941, 0.010776829,
          0.00532392319, 0.00518552121, 0.24533397, 0.125125468,
          0.00610797573, 0.00694754347, 0.0212977715, 0.0735191107,
          0.14045471, 0.179800689, 0.100798778, 0.175051287,
          0.0905979648, 0.0218882728, 0., 0.0120996013, 0.148164749,
          0.127552271, 0.292316049, 0.141725108, 0.100784741,
          0.0377571359, 0., 0.00616665883, 0.114208959, 0.147755235,
          0.288775027, 0.1301402, 0.0117199495, 0., 0.00633124728,
          0.116146468, 0.150215611, 0.125064239, 0.183406651,
          0.109594561, 0.105757378, 0.091955848, 0.0733185485,
          0.112747714, 0., 0.00852016453, 0.254373372, 0.189551905,
          0.125422269, 0.161209539, 0.0434821285, 0.011551966,
          0.00532392319, 0., 0.250443429 ]
      - [ 0.184158564, 0.227257028, 0.125569463, 0.00730642118,
          0.00994446874, 0.0443347245, 0.075410217, 0.217981547,
          0.1257267, 0.146727949, 0., 0., 0.0167499445, 0., 0.0144452974,
          0.247231796, 0.217404529, 0.00730642118, 0., 0.00913171098,
          0.0133160204, 0., 0.134938568, 0.256564498, 0.141523495, 0.,
          0.0474366881, 0., 0.0054953103, 0.0546298325, 0.181941658,
          0.274848014, 0.149119124, 0., 0.0156034473, 0.0898927301,
          0.0461218245, 0.0690944493, 0.176446512, 0.256929934,
          0.163848788, 0.0645879358, 0., 0., 0.122245573, 0.133880839,
          0.133503944, 0.123497471, 0.16434218, 0.158346891,
          0.0338084549, 0., 0.107051067, 0., 0.0555565692, 0.284017086,
          0.207852617, 0.0725319237, 0.0545103885, 0., 0.0892433673,
          0.0548766963, 0., 0.190878108 ]
      - [ 0.29789868, 0.189166039, 0.146678433, 0.00672443444,
          0.0228703152, 0., 0.0090217758, 0.103157692, 0.225549504,
          0.103556439, 0.118185878, 0.0405173749, 0.0118610896,
          0.00811702665, 0.00950978603, 0.00635957764, 0.298859715,
          0.00811702665, 0.00972031429, 0., 0.0408032276, 0.0931926519,
          0.0993518606, 0.186339617, 0.217837706, 0.00850581098, 0.,
          0.00449690036, 0.0624701679, 0.158158794, 0.119908392,
          0.157997772, 0.195069328, 0., 0.0476248264, 0.0195333064,
          0.0688847676, 0.0872447044, 0.232262745, 0.123450972,
          0.253293365, 0.0377645418, 0., 0., 0.0420513898, 0.114737272,
          0.148101017, 0.122752905, 0.195504695, 0.0889540166,
          0.143366516, 0., 0., 0., 0.0629768372, 0.223156318,
          0.233748496, 0.185778946, 0.111866362, 0.0635388568, 0., 0.,
          0.0492824428, 0.191179037 ]
      - [ 0.184158564, 0.227257028, 0.125569463, 0.00730642118,
          0.00994446874, 0.0443347245, 0.075410217, 0.217981547,
          0.1257267, 0.146727949, 0., 0., 0.0167499445, 0., 0.0144452974,
          0.247231796, 0.217404529, 0.00730642118, 0., 0.00913171098,
          0.0133160204, 0., 0.134938568, 0.256564498, 0.141523495, 0.,
          0.0474366881, 0., 0.0054953103, 0.0546298325, 0.181941658,
          0.274848014, 0.149119124, 0., 0.0156034473, 0.0898927301,
          0.0461218245, 0.0690944493, 0.176446512, 0.256929934,
          0.163848788, 0.0645879358, 0., 0., 0.122245573, 0.133880839,
          0.133503944, 0.123497471, 0.16434218, 0.158346891,
          0.0338084549, 0., 0.107051067, 0., 0.0555565692, 0.284017086,
          0.207852617, 0.0725319237, 0.0545103885, 0., 0.0892433673,
          0.0548766963, 0., 0.190878108 ]
      - [ 0.296214938, 0.168518111, 0.0783682764, 0.00563607644,
          0.0120122442, 0., 0.029479539, 0.1236507, 0.225326061,
          0.105409488, 0.0967669189, 0.155534938, 0.114919826, 0.,
          0.0041976478, 0.087254636, 0.269260317, 0.0111059332, 0.,
          0.109835319, 0.0551971681, 0.125860274, 0.116760239,
          0.252403945, 0.0049918727, 0., 0., 0., 0.16483134, 0.167990819,
          0.128450722, 0.110519513, 0.249840587, 0.0059363707, 0., 0.,
          0.0106844027, 0.029533824, 0.190138236, 0.14286463,
          0.273821801, 0., 0.00732051209, 0., 0.112454876, 0.110315017,
          0.105879754, 0.090332754, 0.239986554, 0.144777536,
          0.125723958, 0., 0.00789284427, 0., 0.029988721, 0.115233749,
          0.237240747, 0.187934384, 0.192416146, 0.0585156865,
          0.0122275418, 0.00527826278, 0.00296818535, 0. ]
      - [ 0.245851114, 0.15367341, 0.146602705, 0.142335221,
          0.00893055368, 0., 0.0455904379, 0.105513893, 0.217641547,
          0.129213035, 0.0735122412, 0.119186409, 0.00778417988,
          0.00594405178, 0.0365047827, 0.154038697, 0.185937658,
          0.0341275185, 0., 0.111071609, 0.0540084057, 0.0840753093,
          0.09710747, 0.0839910135, 0.24774982, 0.0131146163,
          0.00679312879, 0., 0.137551934, 0.101050638, 0.199745223,
          0.20905377, 0.152634352, 0.0152945789, 0., 0., 0.134109274,
          0.0991818011, 0.142350674, 0.185985848, 0.247091547,
          0.00292732101, 0., 0.0601459891, 0.134271607, 0.0379477926,
          0.114802912, 0.205332965, 0.267966896, 0.0542676151,
          0.0717402101, 0.145816624, 0.051766254, 0., 0., 0.021085754,
          0.289293647, 0.12633124, 0.175702646, 0.150503889,
          0.00602959981, 0., 0., 0. ]
      - [ 0.272994041, 0.127348453, 0.167297974, 0.148053259,
          0.0188107416, 0., 0.0452982597, 0.152209431, 0.215085968,
          0.0973952338, 0.0579484552, 0.147422731, 0.00913250726, 0., 0.,
          0.109618865, 0.268025398, 0.00290257554, 0., 0.109719284,
          0.102143161, 0.053023424, 0.101348653, 0.134301931,
          0.228777573, 0.00649035629, 0., 0., 0.122559123, 0.215572864,
          0.0828238353, 0.10322801, 0.11193338, 0.00290257554, 0.,
          0.0196418837, 0.15142937, 0.0938865766, 0.132091075,
          0.19475159, 0.241392851, 0.014520932, 0., 0., 0.100447193,
          0.0555035211, 0.117899589, 0.237215564, 0.242584094,
          0.12586987, 0.102097444, 0.101587027, 0.0100927996,
          0.00516159041, 0., 0.0331326723, 0.308752477, 0.155348212,
          0.0689938217, 0.132577643, 0., 0., 0., 0.0606766231 ]
      - [ 0.297085315, 0.171659812, 0.160175234, 0.0610073656,
          0.00999644119, 0., 0., 0., 0.256386191, 0.107760735,
          0.126019627, 0.104234479, 0.0109397899, 0., 0.00945583358, 0.,
          0.195825934, 0.00420298567, 0.00528497482, 0.00628492981,
          0.0117218662, 0.173882842, 0.103937231, 0.110791489,
          0.21992977, 0.0103659322, 0.0079028802, 0., 0.0741861239,
          0.126040056, 0.172351986, 0.228461564, 0.129170001,
          0.0132660167, 0., 0., 0.0742928833, 0.127101764, 0.159353405,
          0.21254386, 0.222025707, 0., 0., 0., 0.127586797, 0.114699893,
          0.106161945, 0.222914428, 0.19423528, 0.0940372571,
          0.161320612, 0.125088423, 0.0079028802, 0., 0.0880046636,
          0.111415543, 0.258018762, 0.171787813, 0.157739639,
          0.00564324297, 0.0117218662, 0.00528497482, 0.0595546849,
          0.151044831 ]
      - [ 0.291194826, 0.186169311, 0.0994928926, 0.142702505,
          0.00839108881, 0., 0., 0.112123623, 0.230722457, 0.0806898922,
          0.0940346569, 0.137457833, 0.0100462018, 0., 0., 0.0475224406,
          0.277736992, 0.00597350718, 0., 0., 0.111905597, 0.117925003,
          0.101719372, 0.0907952636, 0.253306389, 0.00667858403, 0.,
          0.00567133399, 0.00710373698, 0.0382494628, 0.154842719,
          0.172148272, 0.179351538, 0.00422390737, 0., 0., 0.128794342,
          0.116991967, 0.16317372, 0.171648353, 0.253140628,
          0.00422390737, 0.00751128746, 0.0798983574, 0.113807239,
          0.0952692851, 0.145873144, 0.146090031, 0.214047998,
          0.105994247, 0.108066574, 0.15814054, 0.0100462018, 0., 0.,
          0.113278054, 0.303414494, 0.165453032, 0.00806168094, 0.,
          0.00939736143, 0., 0.0260581765, 0.159897909 ]
      - [ 0.266800195, 0.162790045, 0.100202553, 0.145912513,
          0.0107811261, 0., 0.00523414789, 0.114506386, 0.243986353,
          0.0990930945, 0.00883493759, 0.0745727718, 0.0397808366, 0.,
          0.0575269535, 0.155054614, 0.190602794, 0.00955620315,
          0.00965036452, 0.00451884978, 0.0950738341, 0.0938660204, 0.,
          0.0955066308, 0.256299108, 0.00675725611, 0.00682383822, 0.,
          0.0987452865, 0.110704936, 0.191287875, 0.223848999,
          0.161613613, 0., 0., 0.0632152408, 0.106059134, 0.121479094,
          0.0853234679, 0.216388837, 0.255709529, 0., 0.00613617338,
          0.115651242, 0.00880275294, 0.0755222961, 0.144876078,
          0.19158344, 0.266327232, 0.0950743407, 0.074198842,
          0.101880141, 0.121731542, 0., 0., 0., 0.297587007, 0.179277539,
          0.115307502, 0.135362029, 0.00508227153, 0.0173317418, 0., 0. ]
      - [ 0.305570036, 0.136979505, 0.163374573, 0.081017375,
          0.00358919962, 0.0196067728, 0.0490441956, 0.156452879,
          0.227849171, 0.0936662406, 0.0853523538, 0.067441158,
          0.0111097982, 0., 0.00522758067, 0.0657425076, 0.302976966,
          0.00522758067, 0., 0., 0.111157283, 0.0626892075, 0.0770906508,
          0.0541974194, 0.2808083, 0.00739291543, 0., 0., 0.00358919962,
          0.166198537, 0.131911218, 0.0898171961, 0.190324023, 0., 0.,
          0.0331905223, 0.111906335, 0.125702515, 0.0744895115,
          0.216089264, 0.253934294, 0.00798526127, 0., 0., 0.120626308,
          0., 0.0835399255, 0.211105451, 0.271247059, 0.0726446584,
          0.0949009657, 0.135043204, 0., 0., 0., 0., 0.322557539,
          0.149426863, 0.101651952, 0.0707811937, 0., 0., 0.021343641,
          0.0673428699 ]
      - [ 0.343301147, 0.108918928, 0.10218361, 0., 0.00625990797, 0.,
          0.00880046468, 0., 0.285938799, 0.0787352696, 0.126756117,
          0.0461266451, 0.010587167, 0.00540442904, 0.0085959686,
          0.00454456499, 0.282744974, 0.00961058494, 0.00764301699, 0.,
          0.0599744283, 0.0875905752, 0.144974738, 0.15513669,
          0.199961573, 0.00744432677, 0., 0.00454456499, 0.0672657713,
          0.112047903, 0.179615706, 0.132701203, 0.189838424, 0., 0., 0.,
          0., 0., 0.115930095, 0.204479322, 0.278043807, 0.0177857652,
          0.0191151798, 0.114424244, 0.0945672318, 0.103094906,
          0.0693710819, 0.221018359, 0.214490324, 0.152142823,
          0.0775428414, 0.101550661, 0.114649355, 0.0138874156,
          0.0274960659, 0., 0.314334482, 0.150427938, 0.103519425,
          0.10510388, 0., 0., 0., 0.107211612 ]
      - [ 0.270509094, 0.128188774, 0.133960947, 0.0104195029,
          0.0102033829, 0., 0.0069679413, 0.115298703, 0.251428634,
          0.100730136, 0.0850428566, 0.0586534962, 0.00793165341,
          0.0368727595, 0.00787418336, 0.204858691, 0.299858093,
          0.00763299735, 0.0140877683, 0.00591705088, 0.0601429529,
          0.0946536139, 0.101034209, 0.147868067, 0.235538393,
          0.0108674318, 0., 0.00959054846, 0.0151428198, 0.0211746525,
          0.103931308, 0.200582057, 0.234669909, 0., 0., 0.00859956443,
          0., 0.13915953, 0.135401756, 0.24752754, 0.229177639,
          0.0158653315, 0., 0., 0.118384719, 0.0927474201, 0.101010926,
          0.140519872, 0.158534661, 0.0496760495, 0.0884808823,
          0.121721312, 0.117983013, 0., 0.0385720097, 0.171430618,
          0.317998171, 0.0339603759, 0., 0., 0., 0.0520609617,
          0.0572234169, 0.215387136 ]
      - [ 0.325780332, 0.143960163, 0.141355038, 0., 0.00733435666, 0.,
          0., 0.0183560736, 0.258569479, 0.109954551, 0.0704841986,
          0.114645906, 0.0114282994, 0., 0., 0.0616547167, 0.279742718,
          0.0174492449, 0.00696334383, 0.0100541217, 0.122818619,
          0.0797985643, 0.0981336981, 0.0758694932, 0.259135365,
          0.0274456628, 0.0155902989, 0., 0.0151201636, 0.0897081271,
          0.121744417, 0.204651073, 0.258021235, 0.0212272592, 0.,
          0.0132417148, 0.00936330669, 0.14457944, 0.150843993,
          0.227602735, 0.234366983, 0.00689540105, 0., 0.116089113,
          0.0311435983, 0.0757374391, 0.0974961668, 0.0750204027,
          0.161088675, 0.0775864944, 0.103703342, 0.142184734,
          0.0388964899, 0., 0., 0.0379481763, 0.326277494, 0.173978612,
          0.0459581502, 0., 0., 0.022125138, 0.0443990268, 0.207052022 ]
      - [ 0.194282055, 0.188706383, 0.0999609157, 0., 0.0072844238, 0.,
          0.00875010807, 0.252061188, 0.0765874237, 0.131549537,
          0.0933269039, 0.0776938125, 0.113937296, 0.0168888401,
          0.0303133503, 0.226521417, 0.115119249, 0.00695870444,
          0.00621899124, 0., 0.0830861479, 0.117283076, 0.104081661,
          0.307802558, 0.0888430998, 0.00612544594, 0.00691593718, 0.,
          0.0051508653, 0., 0.00612544594, 0.342064798, 0.0725252777,
          0.0182401277, 0., 0., 0., 0.108910695, 0.171024576,
          0.259646475, 0.16072011, 0.0053047915, 0.0366422907,
          0.0221283659, 0.0769314393, 0.105197862, 0.0934778228,
          0.260596305, 0.170596883, 0.107958876, 0., 0.0725072771, 0.,
          0.0398376845, 0.101137385, 0.228891, 0.176034361, 0.183221892,
          0., 0., 0.0387267247, 0.00879498199, 0.00433134427,
          0.270419091 ]
      - [ 0.192571133, 0.130729184, 0.134461701, 0.00716471951,
          0.0086429622, 0.00527630001, 0., 0.218606532, 0.122280277,
          0.160907954, 0.0685314834, 0.11074356, 0.111385547, 0.,
          0.0104352375, 0.250257641, 0.12174385, 0.083920151,
          0.0291842427, 0.0893171728, 0.114777751, 0.114052281,
          0.0824645534, 0.244029269, 0.122687444, 0.00894207787, 0., 0.,
          0.00664769625, 0.122817352, 0.103835456, 0.316017538,
          0.0671819299, 0., 0., 0., 0.01278219, 0.121218801, 0.160470158,
          0.279551446, 0.130246982, 0.00674140081, 0.0168211069,
          0.00443682168, 0.110859379, 0.115380928, 0.10378509,
          0.261356771, 0.132620856, 0.0871249363, 0.0778264999,
          0.136759743, 0.052157633, 0.0561717637, 0.00527630001,
          0.223278701, 0.231504515, 0.170084789, 0., 0.0185080618,
          0.0409576297, 0.0060247872, 0., 0.217207834 ]
      - [ 0.297500253, 0.128039688, 0.109695472, 0.101049125,
          0.00789486989, 0., 0.00663876766, 0.105338775, 0.251069993,
          0.0772358328, 0.106417432, 0.148185492, 0.0111650312,
          0.0333499648, 0., 0.0997698158, 0.295583338, 0.00727240508,
          0.00527961738, 0., 0.109268703, 0.171431199, 0.0856860802,
          0.111913361, 0.251669198, 0., 0., 0., 0.00353069301,
          0.0832900554, 0.125527948, 0.138036832, 0.24829416, 0.,
          0.0067041819, 0., 0.0146840578, 0.135728672, 0.166372299,
          0.201125666, 0.221852049, 0.00419872534, 0., 0.0357814245,
          0.12789847, 0.0926402956, 0.102064706, 0.101323031,
          0.270331293, 0.138969913, 0.127456829, 0.0681551024,
          0.00998630747, 0.00527961738, 0.00663876766, 0.00443961145,
          0.295673162, 0.183430567, 0.122939348, 0., 0.00998630747,
          0.00527961738, 0.00663876766, 0. ]
      - [ 0.324510366, 0.0940825418, 0.0947964117, 0.100612111,
          0.0126292938, 0.0343592986, 0.00542393699, 0.118129559,
          0.233970493, 0.0927745625, 0.0963725969, 0.0849474594,
          0.115980156, 0., 0.0279353652, 0.113856912, 0.257617503,
          0.0329247825, 0.029421784, 0., 0.115628362, 0.10336183,
          0.0870633572, 0.222180545, 0.163181454, 0.00431349827, 0., 0.,
          0.00725441054, 0.14649938, 0.13670218, 0.195351705,
          0.198018029, 0.00305010378, 0.00707805809, 0., 0.0703959763,
          0.135262683, 0.169267148, 0.080028668, 0.29945454,
          0.0207252279, 0., 0., 0., 0.155583456, 0.0963026285,
          0.133775339, 0.16988571, 0.158410624, 0.144418299, 0., 0., 0.,
          0.0314034596, 0.163697422, 0.28997013, 0.100645386,
          0.159848422, 0., 0., 0., 0.128257483, 0.11031314 ]
      - [ 0.309696466, 0.12886335, 0., 0.0044117677, 0.0479786955, 0.,
          0.0513794608, 0.152347401, 0.227406159, 0.151075318,
          0.11802341, 0.142347649, 0., 0., 0.0078957919, 0.0044117677,
          0.227790922, 0.00417239219, 0.00524650561, 0.111971013,
          0.132088318, 0.0921595693, 0.105610266, 0.149324715,
          0.223224506, 0.011273751, 0., 0.0044117677, 0.0553785041,
          0.173733562, 0.148860812, 0.147241846, 0.25496918,
          0.0144797014, 0., 0., 0.012650256, 0., 0.131762654,
          0.110177115, 0.314885527, 0.0134816095, 0., 0., 0.10253001,
          0.137176946, 0.11218065, 0.132834002, 0.218949825, 0.171716973,
          0.133016005, 0.0629843175, 0.0138352169, 0.036254622, 0.,
          0.157872677, 0.269288093, 0.109092429, 0.171072483,
          0.0794712529, 0.0145350024, 0.00847996864, 0., 0. ]
      - [ 0.299288869, 0.107920997, 0.180512339, 0.0715375766,
          0.0084804548, 0.00732151605, 0.133526996, 0.0979249775,
          0.161329374, 0.187822476, 0.0938339382, 0.128171131,
          0.00951268058, 0.00591150764, 0.0105301794, 0.00703000696,
          0.270186126, 0.0144205512, 0., 0.0779940858, 0.105606899,
          0.132138416, 0.0973832011, 0.0733933374, 0.246717736,
          0.0124886539, 0.00657399511, 0.00650985073, 0.0668468773,
          0.121465527, 0.169377759, 0.123678677, 0.247200653, 0., 0., 0.,
          0.0655105114, 0.140480205, 0.154027402, 0.124858521,
          0.270779222, 0.011275392, 0., 0.110305063, 0.0706559867,
          0.142830029, 0.0808871463, 0.0747528747, 0.255823821,
          0.107453778, 0.121100038, 0.128479838, 0.0084804548, 0., 0.,
          0., 0.319226593, 0.0926883817, 0.136666834, 0.120492287,
          0.0084804548, 0.00517709367, 0., 0. ]
      - [ 0.322315723, 0.160299838, 0.115663327, 0.00657880213,
          0.00906196702, 0., 0.0043995101, 0.0168621726, 0.279048949,
          0.100273713, 0.113545418, 0.115846008, 0.00640777824,
          0.0063168644, 0.0043995101, 0., 0.262710005, 0.0158225428,
          0.0193279553, 0.11455182, 0.00640777824, 0.113375932,
          0.126491085, 0.10346023, 0.260345787, 0., 0., 0.00657880213,
          0.00369953248, 0.00893339515, 0.204830155, 0.166000381,
          0.130677581, 0.131001621, 0.0466200709, 0., 0., 0.0778910443,
          0.131117985, 0.15654628, 0.280992091, 0.0401567779,
          0.0230769441, 0., 0.0940180123, 0.100001395, 0.187124446,
          0.104115024, 0.28136, 0.132560849, 0.110898562, 0., 0., 0.,
          0.0360548235, 0.172421575, 0.296423823, 0.156774983, 0., 0.,
          0., 0., 0., 0. ]
      - [ 0.352359951, 0.114148803, 0.00705683883, 0.0112906098,
          0.0129608, 0.0648977682, 0.101836264, 0.0717206597,
          0.206187621, 0.170979753, 0.0900137872, 0.116373867,
          0.0141758313, 0.00634569302, 0.00710047688, 0.00755324354,
          0.262366354, 0.00826829299, 0.0160286743, 0.00467314618,
          0.114892058, 0.0817056596, 0.150046587, 0.13499926,
          0.209310353, 0.0148523934, 0., 0.054079026, 0.0562661327,
          0.117292933, 0.113774359, 0.221736059, 0.201873794, 0.,
          0.00555733871, 0., 0.10169442, 0.0762557238, 0.122645445,
          0.229053423, 0.253488839, 0.00312512112, 0., 0., 0.0903265253,
          0.108156085, 0.111580156, 0.155631393, 0.255112439,
          0.127880678, 0.107629016, 0.040814653, 0., 0., 0.0487403758,
          0.11444167, 0.285830915, 0.179859534, 0.11544434, 0.102146298,
          0., 0., 0., 0. ]
      - [ 0.258176416, 0.197734818, 0.0416588746, 0.00891447999,
          0.00868273713, 0., 0.00788628589, 0.172676057, 0.177204609,
          0.15976201, 0.103279278, 0.137713343, 0.00973958336,
          0.0298103392, 0.119196296, 0.11626371, 0.235138744,
          0.00516278623, 0., 0., 0.111399151, 0.130398929, 0.157430097,
          0.187303856, 0.153330564, 0.00298073608, 0., 0., 0.0103837326,
          0.0548991822, 0.17814444, 0.206056908, 0.104752354,
          0.129288957, 0., 0.00666512828, 0.0123619922, 0.0465148985,
          0.128571808, 0.244240656, 0.228628248, 0.00516278623,
          0.00530058146, 0.00445723999, 0.138154164, 0.097833015,
          0.184379637, 0.169070333, 0.179637805, 0.179680839,
          0.109286621, 0.111121312, 0.0120630367, 0., 0.00421539741,
          0.134279758, 0.285532564, 0.155928046, 0.107560158,
          0.0754392222, 0.00937842764, 0.0266865119, 0.00851587299,
          0.144718751 ]
      - [ 0.24514626, 0.1679921, 0.116015784, 0.110762179, 0.00864361599,
          0.0250042044, 0.204303771, 0.00443715742, 0.113455601,
          0.151353121, 0.114057362, 0.110775903, 0.0093361726, 0.,
          0.00513952458, 0.177923366, 0.263289481, 0., 0., 0.,
          0.0120762317, 0.137362853, 0.148950547, 0.143137708,
          0.158935666, 0.118572332, 0.0312650651, 0., 0.0093361726,
          0.167867944, 0.139230847, 0.158131853, 0.172241747,
          0.00513952458, 0., 0., 0.0117035117, 0.150970235, 0.207403123,
          0.188302308, 0.20871973, 0.00800918881, 0., 0.112367727,
          0.111563183, 0.111147322, 0.105829053, 0.169196248,
          0.182498917, 0.108894318, 0.15955843, 0.112020336,
          0.0105862245, 0.0073183435, 0.00593461189, 0.138160378,
          0.280997187, 0.150865451, 0.137060925, 0., 0.00864361599,
          0.00527669908, 0.00296730595, 0.177883312 ]
      - [ 0.324543744, 0.177582428, 0.00692817988, 0., 0.0121012339, 0.,
          0.111501232, 0.171054259, 0.120668635, 0.172324285,
          0.0748852044, 0.120559476, 0.0103199668, 0.00692817988,
          0.00531418202, 0.0480047651, 0.284557283, 0.00811754726, 0.,
          0., 0.0892391503, 0.102721266, 0.203639627, 0.011974236,
          0.181246266, 0.0976372883, 0.00931602251, 0., 0.00965344533,
          0.124646075, 0.178492293, 0.137708962, 0.254161358,
          0.0104967766, 0., 0., 0.0215723123, 0.0248123147, 0.18474856,
          0.226754203, 0.231803566, 0.00817476027, 0.00622999994,
          0.105449021, 0.12854059, 0.071983248, 0.0894319415,
          0.0779706538, 0.259357661, 0.0936851501, 0.121567354,
          0.121398181, 0.00631966349, 0., 0.00711992336, 0.00582588185,
          0.305769593, 0.211683273, 0.0898156166, 0.00794655643,
          0.00815865025, 0., 0.00306814443, 0. ]
      - [ 0.262375623, 0.167315334, 0.00674577896, 0.00446715765,
          0.00948158558, 0., 0.00667995866, 0.251017392, 0.0733922273,
          0.160031661, 0.0996566117, 0.113052033, 0.0147869065, 0.,
          0.012233749, 0.178271621, 0.216956005, 0.0434294902,
          0.0928775147, 0.00446715765, 0.0757373497, 0.0805288255,
          0.120373458, 0.252980858, 0.178960115, 0.00422477676, 0., 0.,
          0.0614784919, 0.029434666, 0.113552026, 0.267213881,
          0.122050747, 0., 0., 0., 0., 0.0811607465, 0.160566017,
          0.268194675, 0.161468253, 0.00676169246, 0., 0., 0.059545286,
          0.121682659, 0.0856703743, 0.25275141, 0.168625191,
          0.110532254, 0.108852156, 0., 0.0876717046, 0., 0.0128638102,
          0.239804238, 0.232250586, 0.128927499, 0.0373049341, 0., 0.,
          0.0788833275, 0., 0.232110471 ]
      - [ 0.194282055, 0.188706383, 0.0999609157, 0., 0.0072844238, 0.,
          0.00875010807, 0.252061188, 0.0765874237, 0.131549537,
          0.0933269039, 0.0776938125, 0.113937296, 0.0168888401,
          0.0303133503, 0.226521417, 0.115119249, 0.00695870444,
          0.00621899124, 0., 0.0830861479, 0.117283076, 0.104081661,
          0.307802558, 0.0888430998, 0.00612544594, 0.00691593718, 0.,
          0.0051508653, 0., 0.00612544594, 0.342064798, 0.0725252777,
          0.0182401277, 0., 0., 0., 0.108910695, 0.171024576,
          0.259646475, 0.16072011, 0.0053047915, 0.0366422907,
          0.0221283659, 0.0769314393, 0.105197862, 0.0934778228,
          0.260596305, 0.170596883, 0.107958876, 0., 0.0725072771, 0.,
          0.0398376845, 0.101137385, 0.228891, 0.176034361, 0.183221892,
          0., 0., 0.0387267247, 0.00879498199, 0.00433134427,
          0.270419091 ]
      - [ 0.204616547, 0.16072388, 0.107157208, 0., 0.0118026417,
          0.0060762777, 0.0059848791, 0.247521162, 0.10890688,
          0.0977989584, 0.130367696, 0.0974308625, 0.114197902, 0.,
          0.0108712651, 0.229605645, 0.161229134, 0.0618370771,
          0.0853138641, 0.114928134, 0.0685346872, 0.13382645,
          0.094907932, 0.209868282, 0.16619283, 0., 0., 0., 0.,
          0.124002151, 0.140376955, 0.28670305, 0.012849763, 0., 0., 0.,
          0., 0.0706914514, 0.167998448, 0.292372406, 0.119757414, 0.,
          0., 0.0228167903, 0.0960381478, 0.0950462818, 0.0816847235,
          0.28407082, 0.146668375, 0.0835632533, 0.0918927863,
          0.0798564702, 0.0569522008, 0.0754666403, 0.00299243955,
          0.17937924, 0.283649236, 0.136802584, 0.072992906,
          0.00447474094, 0.0242376048, 0., 0.0441677049, 0.209348723 ]
      - [ 0.215392053, 0.150838912, 0., 0.0219198707, 0.011781469, 0.,
          0.00593055738, 0.270943314, 0.0817110613, 0.0944244489,
          0.107659288, 0.146411091, 0.00788511522, 0.0248862393,
          0.103280634, 0.221731409, 0.112543613, 0.0456835032,
          0.00788511522, 0., 0.14113839, 0.143728837, 0.040480148,
          0.218033955, 0.152978271, 0.0051360135, 0., 0.00443412596,
          0.0090463534, 0.119135112, 0.101638332, 0.298811913,
          0.0259444602, 0.00669589872, 0.00745728146, 0.00750345876,
          0.0675143823, 0.120379969, 0.129292384, 0.223640338,
          0.212610841, 0.0803918615, 0., 0., 0.12129423, 0.125464857,
          0.0908999965, 0.283142656, 0.00610778388, 0.147435829,
          0.119386889, 0., 0.112484373, 0.0399208963, 0.103428327,
          0.181966662, 0.2255252, 0.146080494, 0.125550076, 0.0537634082,
          0.014415659, 0.0450395904, 0.0268646348, 0.246340841 ]
      - [ 0.268980831, 0.19201526, 0.10490641, 0.0703796297, 0.014217739,
          0., 0.00435326155, 0.0046030134, 0.257758468, 0.111114472,
          0.123320229, 0.0389766172, 0.0140558239, 0., 0.0571391359,
          0.157465979, 0.308898628, 0.0153305, 0.00948113576, 0.,
          0.113211729, 0.108966485, 0.0721808374, 0.160105392,
          0.234442353, 0.0169437025, 0.0081854444, 0., 0.00634041801,
          0.0340672471, 0.173906326, 0.114650607, 0.232551932,
          0.0174806099, 0., 0., 0.076894857, 0.101392865, 0.169648364,
          0.083268702, 0.306510091, 0.0165357403, 0., 0., 0.113036767,
          0.0806727111, 0.111374244, 0.114364386, 0.282806456,
          0.115624487, 0.0613346659, 0.11274641, 0., 0., 0.0725289807,
          0.155140132, 0.273884267, 0.200353071, 0., 0., 0., 0., 0.,
          0.00584501447 ]
      - [ 0.196887061, 0.128686309, 0.13871187, 0., 0.00944084302, 0.,
          0., 0.232569337, 0.14071463, 0.103582032, 0.0923258588,
          0.129187614, 0.0379632153, 0., 0.0112452917, 0.250847787,
          0.156673446, 0.0080960514, 0.00809898227, 0.0346647464,
          0.1275585, 0.126166672, 0.114052117, 0.179942071, 0.174166784,
          0.00533585809, 0., 0.00634544063, 0.00810741633, 0.144144893,
          0.123885021, 0.272344977, 0.114146069, 0.00300057349, 0., 0.,
          0.0110187996, 0.207908332, 0.0788353607, 0.214154109,
          0.210257843, 0.0811049566, 0.0360920988, 0.0332786217,
          0.106297985, 0.113159366, 0.121863469, 0.238585427,
          0.154914588, 0.128410608, 0.122631215, 0.135378242,
          0.0380160846, 0., 0.071380794, 0.198058009, 0.172029972,
          0.210609451, 0.129113376, 0.0174985044, 0.00944084302, 0.,
          0.0912967995, 0.174041271 ]
      - [ 0.334557563, 0.124941938, 0., 0.00449389312, 0.00714772334, 0.,
          0.0363513716, 0.166727453, 0.241949722, 0.106973238,
          0.0647105947, 0.157755077, 0.00619011, 0.0158615522,
          0.00854397845, 0.0413900949, 0.253672361, 0.0139479293,
          0.0114774695, 0.1136057, 0.0113015426, 0.147281691,
          0.0825737193, 0.15514864, 0.211163387, 0.0199226215,
          0.00534416968, 0., 0.0648698658, 0.0957750753, 0.229714274,
          0.114018537, 0.279293507, 0.0130904885, 0., 0., 0., 0.,
          0.0293777417, 0.194137678, 0.302861452, 0.00736132264, 0., 0.,
          0.111175664, 0.106107838, 0.0703185722, 0.108693443,
          0.258119315, 0.115011603, 0.114165522, 0., 0., 0.,
          0.0322985984, 0.157303542, 0.276499122, 0.112563886,
          0.176060244, 0., 0., 0., 0., 0. ]
      - [ 0.324484587, 0.11681518, 0.0824742019, 0., 0.0130958604,
          0.00575441122, 0.00575441122, 0.0125538325, 0.259234279,
          0.10167139, 0.0875264183, 0.0540089868, 0.123057663,
          0.00575441122, 0.00457631471, 0.112792283, 0.273302585,
          0.0141784688, 0., 0.121985823, 0.0240512732, 0.108489387,
          0.102508165, 0.0826532096, 0.246459231, 0.00660186168, 0., 0.,
          0., 0.0678111836, 0.12041188, 0.205908403, 0.272118628, 0., 0.,
          0., 0., 0.0866320282, 0.1856433, 0.185884625, 0.28345108,
          0.0162299555, 0., 0., 0., 0.0946470499, 0.103798114,
          0.0790644139, 0.282723933, 0.102018394, 0.0999751687, 0., 0.,
          0., 0.0112557905, 0., 0.339757025, 0.192306384, 0.077610679,
          0., 0., 0., 0.00457631471, 0. ]
      - [ 0.220192477, 0.223509952, 0.0857647657, 0.00580873946,
          0.00727584679, 0., 0.0239117052, 0.115193494, 0.221305668,
          0.135824919, 0.136979505, 0.116852716, 0.00363792339,
          0.0424292907, 0.0576467514, 0.187693894, 0.306351423,
          0.0300290827, 0.0153199984, 0.114318661, 0.135681406,
          0.0963294879, 0.0817383081, 0.184886634, 0.182272151,
          0.00432624435, 0., 0.00821479782, 0.013182465, 0.0625031888,
          0.172751978, 0.119353108, 0.200245753, 0.015013624, 0., 0., 0.,
          0.131741732, 0.187637314, 0.222456992, 0.222499594, 0., 0., 0.,
          0.055712752, 0.0930257887, 0.146696046, 0.157216206,
          0.228350729, 0.150715247, 0.0948367715, 0.070405297, 0., 0.,
          0.00624110643, 0., 0.321808368, 0.198290005, 0.0193773434, 0.,
          0., 0., 0., 0. ]
      - [ 0.332279056, 0.13065891, 0.0819714889, 0., 0.00512019359, 0.,
          0.00430555269, 0.0805242732, 0.254229784, 0.0985769778,
          0.103338905, 0.100635283, 0.0133911222, 0., 0.00608897069,
          0.0809027553, 0.295254976, 0., 0.00765647553, 0., 0.137036085,
          0.0950802043, 0.00304448535, 0.10833355, 0.271662027,
          0.00861110538, 0.00687475502, 0., 0.0088684354, 0.0413342603,
          0.125589207, 0.177857876, 0.216506943, 0.00924418494, 0., 0.,
          0., 0.185388938, 0.159846455, 0.10490597, 0.278769433,
          0.063174285, 0., 0., 0.115258276, 0.0912192538, 0.0937693566,
          0.156963632, 0.29192403, 0.0945279598, 0., 0.135440603, 0., 0.,
          0.00430555269, 0.0817637295, 0.324534416, 0.111271009,
          0.126047909, 0., 0., 0., 0.00430555269, 0. ]
      - [ 0.324688226, 0.177120298, 0.120533533, 0.00847566314,
          0.0127513297, 0., 0.0117892548, 0., 0.262355477, 0.10832829,
          0.057802733, 0.114127889, 0.0121701518, 0.00792387035,
          0.0278729815, 0.00471156137, 0.258868635, 0.0148617737,
          0.0063978578, 0., 0.105125032, 0.0554100797, 0.115453482,
          0.190103099, 0.204755828, 0.0127151459, 0.0113771791, 0.,
          0.0145713687, 0.0295724832, 0.162949592, 0.22254096,
          0.166650653, 0., 0., 0.0070454278, 0.0327343568, 0.102358453,
          0.143728256, 0.179300085, 0.287792653, 0., 0.0103403889, 0.,
          0.114296742, 0.109389775, 0.0592326596, 0.200899392,
          0.273895681, 0.0972366706, 0.106759422, 0.106308445, 0., 0.,
          0.00445591984, 0.170973599, 0.291579992, 0.186188057, 0., 0.,
          0., 0., 0., 0. ]
      - [ 0.352849931, 0.142726764, 0.00567865744, 0.00771813327,
          0.0613515824, 0.0373686627, 0.0619947948, 0.180301189,
          0.179348081, 0.178546309, 0.0756880194, 0.0509553701,
          0.110020198, 0., 0.00903213955, 0.00675309962, 0.267694205,
          0.0279541854, 0., 0.0464738682, 0.111498296, 0.111419596,
          0.115060247, 0.138839468, 0.213758692, 0.00958003104,
          0.0236432292, 0.0544873811, 0.0107410848, 0.134190813,
          0.151790723, 0.201107517, 0.185552761, 0., 0., 0., 0.103689089,
          0.0838623568, 0.106227227, 0.226277292, 0.246004298, 0.,
          0.038305793, 0., 0., 0.106343627, 0.111090057, 0.183379188,
          0.225639641, 0.156095907, 0.0694652349, 0., 0.00477516232, 0.,
          0.017526513, 0.163005263, 0.307137489, 0.125207856,
          0.00849157292, 0.103597105, 0., 0., 0., 0.0652266964 ]
      - [ 0.29132241, 0.116877452, 0.0962963551, 0.0111036701,
          0.0126608871, 0.00883364864, 0.00307337823, 0.200866595,
          0.196711406, 0.0975359976, 0.0743201822, 0.11124295,
          0.016554568, 0.00546532543, 0.0954962298, 0.160261765,
          0.196694791, 0.0550397523, 0.00624062726, 0.00459577236,
          0.0445430651, 0.110684544, 0.126687348, 0.209101513,
          0.142517209, 0.00614675647, 0.00898533128, 0.00459577236,
          0.0694575384, 0.0930490196, 0.160942674, 0.25541085, 0., 0.,
          0., 0., 0.0662254915, 0.0458516516, 0.106973581, 0.311823159,
          0.165079027, 0.00759007409, 0., 0., 0.110995628, 0.111163668,
          0.113342367, 0.268032581, 0.175930828, 0.164259136,
          0.0749334767, 0.119462565, 0.00587190734, 0., 0.00922013447,
          0.246812478, 0.214386255, 0.14315322, 0.113979392, 0.102312386,
          0., 0., 0.0996264592, 0.137385249 ]
      - [ 0.318539828, 0.100585125, 0.0942231789, 0.0672964603,
          0.0170828905, 0.0232374761, 0.0764419734, 0.192440972,
          0.162655368, 0.114225082, 0.114609443, 0.0998357758,
          0.0119778644, 0., 0.00828669313, 0.142543837, 0.20485951,
          0.00437895674, 0.00550624682, 0., 0.0567993857, 0.0883558691,
          0.156468183, 0.195122689, 0.132664368, 0.0989671648,
          0.0609963499, 0.0117189167, 0.0122126387, 0.108426236,
          0.119946256, 0.2776272, 0.234256059, 0.0454889126, 0., 0., 0.,
          0.0717266947, 0.172383085, 0.2425953, 0.219843313, 0.,
          0.00628735358, 0.00654806802, 0.128862604, 0.0807937384,
          0.0977711976, 0.131298974, 0.188417286, 0.0976809487,
          0.0806969106, 0.128043652, 0., 0.00550624682, 0.00631715031,
          0.155652076, 0.302879155, 0.105087578, 0.124891929, 0., 0., 0.,
          0.0412744395, 0.191319689 ]
      - [ 0.260258526, 0.150497019, 0.105856597, 0., 0.0106806653,
          0.00804496277, 0.00931921322, 0.15529117, 0.210402295,
          0.110299818, 0.118337847, 0.105951622, 0.056877628, 0.,
          0.00872969627, 0.181618646, 0.303761125, 0.00809737388,
          0.0286341049, 0.00619383203, 0.120422348, 0.122202903,
          0.0978806168, 0.103255853, 0.277666569, 0., 0., 0.,
          0.00387910102, 0., 0.0943417624, 0.157788411, 0.165466323, 0.,
          0., 0., 0.0589351207, 0.0902597457, 0.161196724, 0.21881929,
          0.226990938, 0.0092261089, 0., 0.047685992, 0.0078766821,
          0.191985473, 0.0945668519, 0.180848554, 0.269389778,
          0.157015994, 0.167664513, 0., 0., 0., 0.00461305445,
          0.117989227, 0.32736671, 0.0996317863, 0., 0.0243101344, 0.,
          0., 0., 0. ]
      - [ 0.249443442, 0.127235964, 0.126306206, 0.0642298386,
          0.0106430724, 0., 0.00943383481, 0.11314211, 0.251181483,
          0.065758124, 0.118053906, 0.143661201, 0.00976816565, 0.,
          0.010823153, 0.200832516, 0.225248829, 0., 0.038090691,
          0.106995381, 0.0742658377, 0.0770219788, 0.156694144,
          0.17118527, 0.209473357, 0.0112344986, 0.0079328781,
          0.00446098531, 0.0758326501, 0.0806446671, 0.104103848,
          0.233623341, 0.159201577, 0.0095492648, 0., 0., 0.0545706414,
          0.178947479, 0.129169956, 0.166627139, 0.248679832,
          0.00605759863, 0.0320784226, 0., 0.103673711, 0.0736209899,
          0.110776313, 0.221982256, 0.173378572, 0.181261525,
          0.100222804, 0.0742193982, 0., 0., 0.00516712433, 0.195436999,
          0.245914832, 0.177951559, 0.0370681733, 0., 0., 0.,
          0.125827506, 0.154012859 ]
      - [ 0.351727009, 0.115175374, 0.0726447329, 0.00472736731,
          0.0107108355, 0., 0., 0.00668550702, 0.275565565, 0.0977367982,
          0.0750702024, 0.124182403, 0.011379838, 0.0190416854,
          0.00774377026, 0.0629652813, 0.298469841, 0.00706906291,
          0.0228894204, 0.113265269, 0.0338615328, 0.0961695388,
          0.0854569301, 0.138903648, 0.237877443, 0., 0., 0.,
          0.00801893417, 0.0130459685, 0.181205213, 0.159040794,
          0.259898394, 0., 0., 0., 0., 0.100365572, 0.167091459,
          0.188956797, 0.278522462, 0., 0., 0., 0.0900992975,
          0.108481623, 0.080283381, 0.0799535662, 0.252679974,
          0.0901334658, 0.120622061, 0., 0., 0., 0.00706906291, 0.,
          0.361319751, 0.128594533, 0., 0., 0., 0., 0., 0.0828813091 ]
      - [ 0.294142306, 0.127040029, 0.0435269699, 0., 0.0129622538, 0.,
          0.010142412, 0.119071171, 0.181242526, 0.197056532,
          0.0765525177, 0.126254022, 0.0107880691, 0., 0.020759616,
          0.198534012, 0.296136767, 0.0283621512, 0.0435012542,
          0.119341262, 0.00852871779, 0.0969313681, 0.113439694,
          0.230035767, 0.108019695, 0.00717176823, 0., 0., 0.00762831699,
          0.0481994636, 0.124208391, 0.180543274, 0.20120661, 0., 0., 0.,
          0., 0.112795278, 0.180322111, 0.234773591, 0.24281162, 0., 0.,
          0., 0.0403011516, 0.0792282298, 0.135023594, 0.181305379,
          0.259040207, 0.0983979031, 0.11500781, 0., 0.0219907127, 0.,
          0.00555522786, 0.00830700342, 0.346382171, 0.179076418,
          0.0236063581, 0., 0., 0., 0., 0.0594631396 ]
      - [ 0.298851371, 0.147909895, 0.0924891755, 0.1145228,
          0.0102440203, 0., 0.00304556545, 0.059842892, 0.248287916,
          0.0858038217, 0.0950633362, 0.0836340263, 0.11382138,
          0.0190693717, 0.00746008102, 0.114600055, 0.295165092,
          0.0156042464, 0., 0.115815811, 0.068955414, 0.0959411561,
          0.106176846, 0.100616425, 0.279684812, 0.00304556545, 0., 0.,
          0., 0., 0.124600589, 0.175778449, 0.197557434, 0., 0., 0.,
          0.114846587, 0.083616443, 0.139567032, 0.236217812,
          0.226022437, 0.0436803624, 0., 0., 0.0271042101, 0.0714174062,
          0.193799034, 0.0837147906, 0.28990981, 0.0944121554,
          0.134946972, 0.0638513789, 0., 0., 0.0472199582, 0.196711421,
          0.283394933, 0.129359633, 0., 0., 0., 0., 0., 0. ]
      - [ 0.260258526, 0.150497019, 0.105856597, 0., 0.0106806653,
          0.00804496277, 0.00931921322, 0.15529117, 0.210402295,
          0.110299818, 0.118337847, 0.105951622, 0.056877628, 0.,
          0.00872969627, 0.181618646, 0.303761125, 0.00809737388,
          0.0286341049, 0.00619383203, 0.120422348, 0.122202903,
          0.0978806168, 0.103255853, 0.277666569, 0., 0., 0.,
          0.00387910102, 0., 0.0943417624, 0.157788411, 0.165466323, 0.,
          0., 0., 0.0589351207, 0.0902597457, 0.161196724, 0.21881929,
          0.226990938, 0.0092261089, 0., 0.047685992, 0.0078766821,
          0.191985473, 0.0945668519, 0.180848554, 0.269389778,
          0.157015994, 0.167664513, 0., 0., 0., 0.00461305445,
          0.117989227, 0.32736671, 0.0996317863, 0., 0.0243101344, 0.,
          0., 0., 0. ]
      - [ 0.321705729, 0.13677755, 0.100434139, 0.00674154237,
          0.0450144112, 0.0125843305, 0.00801709015, 0.108149052,
          0.241860852, 0.0800215229, 0.105823644, 0.0748785734,
          0.00808614586, 0.00968093425, 0.00647312496, 0.124088563,
          0.282058805, 0.0095636351, 0.00566893863, 0., 0.110549182,
          0.0665575564, 0.111267127, 0.107210316, 0.239801899,
          0.0114940591, 0., 0., 0.013221073, 0.0588976443, 0.188236192,
          0.184669092, 0.209002078, 0., 0.0249048155, 0., 0.0953231379,
          0.0848804116, 0.21025072, 0.161591142, 0.26635763,
          0.00915438123, 0., 0., 0.13763997, 0.0371389873, 0.110485435,
          0.162545949, 0.246874467, 0.0993019044, 0.110015176,
          0.109364443, 0., 0., 0.0208860617, 0.0236243345, 0.350685567,
          0.155976474, 0., 0., 0., 0., 0.00318787852, 0.0362526029 ]
      - [ 0.186347187, 0.12895523, 0., 0.00564171141, 0.0112460796, 0.,
          0., 0.2523112, 0.18089138, 0.14887391, 0.0775833726,
          0.0746770799, 0.0100945784, 0., 0.0273131598, 0.275813043,
          0.193668351, 0.0395519547, 0.00747205457, 0., 0.15349324,
          0.107536338, 0.116893113, 0.194360375, 0.151129454,
          0.048348777, 0., 0.00564171141, 0.011263622, 0.0809029415,
          0.198749959, 0.222651914, 0.0891768709, 0., 0., 0., 0.,
          0.0366976373, 0.0837754682, 0.286446214, 0.196225151, 0., 0.,
          0., 0.0777341649, 0., 0.106572852, 0.315926939, 0.171226576,
          0.1175818, 0.0856768787, 0.127879053, 0., 0., 0.0210760292,
          0.225188613, 0.221788511, 0.151867077, 0.111427955, 0., 0.,
          0.00528354011, 0., 0.194941208 ]
      - [ 0.175830781, 0.1297144, 0.0699959993, 0.0250419136,
          0.00950659532, 0., 0.0310667567, 0.27504167, 0.112691075,
          0.0628664717, 0.0865269452, 0.117732979, 0.107983455,
          0.00967905018, 0.0162126292, 0.277745008, 0.106561869,
          0.0042359205, 0., 0.113989517, 0.0637120456, 0.116988629,
          0.108086862, 0.260612637, 0.0420281664, 0., 0.00796480849,
          0.0493497513, 0.117075406, 0.111008525, 0.132221788, 0.2977902,
          0.0312561654, 0., 0., 0., 0., 0., 0.130294114, 0.316572547,
          0.117975995, 0., 0., 0., 0.0704209059, 0.0929747075,
          0.104238518, 0.296559185, 0.11125648, 0.127859265, 0.120839573,
          0.00447894074, 0.0104116853, 0., 0.00680539757, 0.25417757,
          0.151234999, 0.151381031, 0.157023877, 0.100316495,
          0.00950659532, 0., 0., 0.226901054 ]
      - [ 0.223059162, 0.185344219, 0.0152306408, 0., 0.0146371601, 0.,
          0.147425264, 0.184875861, 0.101684168, 0.184964389,
          0.0848907977, 0.129115656, 0.00721829711, 0.00921514072,
          0.0156637635, 0.216737494, 0.140687481, 0.00750988256,
          0.00539693609, 0.00453826413, 0.0871793404, 0.107517995,
          0.156385243, 0.185759202, 0.150664762, 0.0969145447,
          0.00616253633, 0., 0.012058164, 0.0859554633, 0.186249554,
          0.276125759, 0.116205133, 0.123202078, 0., 0., 0.,
          0.0618866012, 0.184406266, 0.275364339, 0.141126528,
          0.0060698404, 0., 0., 0.120845698, 0.080982767, 0.103155755,
          0.237662494, 0.15351361, 0.113619149, 0.0749063492,
          0.112723626, 0., 0.0241025761, 0.00962116383, 0.215254098,
          0.225289658, 0.176810279, 0.0862584859, 0., 0., 0.00539693609,
          0.0460673645, 0.22612308 ]
      - [ 0.270454079, 0.108358271, 0.140361086, 0., 0.0104794754, 0.,
          0.0344039164, 0.150363162, 0.215832174, 0.109096743,
          0.111644782, 0.128002927, 0.00984995626, 0., 0.00601643929,
          0.157904387, 0.238015577, 0.00613726815, 0.0272567794,
          0.0756521523, 0.00957398303, 0.0875446871, 0.148416311,
          0.221534684, 0.211333558, 0.0079590017, 0.0282631479, 0.,
          0.0121502699, 0., 0.0460523814, 0.259812385, 0.196856722, 0.,
          0., 0., 0.00449833786, 0.111433178, 0.193937764, 0.18718119,
          0.207783252, 0.101130113, 0., 0., 0.0314245671, 0.111055486,
          0.102002494, 0.198721543, 0.262040108, 0.0894899666,
          0.126969174, 0., 0., 0., 0.113516659, 0.169055089, 0.270036131,
          0.147036165, 0., 0., 0., 0., 0., 0.180391759 ]
      - [ 0.298851371, 0.147909895, 0.0924891755, 0.1145228,
          0.0102440203, 0., 0.00304556545, 0.059842892, 0.248287916,
          0.0858038217, 0.0950633362, 0.0836340263, 0.11382138,
          0.0190693717, 0.00746008102, 0.114600055, 0.295165092,
          0.0156042464, 0., 0.115815811, 0.068955414, 0.0959411561,
          0.106176846, 0.100616425, 0.279684812, 0.00304556545, 0., 0.,
          0., 0., 0.124600589, 0.175778449, 0.197557434, 0., 0., 0.,
          0.114846587, 0.083616443, 0.139567032, 0.236217812,
          0.226022437, 0.0436803624, 0., 0., 0.0271042101, 0.0714174062,
          0.193799034, 0.0837147906, 0.28990981, 0.0944121554,
          0.134946972, 0.0638513789, 0., 0., 0.0472199582, 0.196711421,
          0.283394933, 0.129359633, 0., 0., 0., 0., 0., 0. ]
      - [ 0.256937176, 0.162159652, 0.123508841, 0.0886787772,
          0.0110321762, 0., 0., 0., 0.278371781, 0.0923769847,
          0.0925209224, 0.127240837, 0.00982964598, 0.0307677984,
          0.033990398, 0.159941673, 0.28626436, 0.0117492909,
          0.0344389677, 0.00570031675, 0.155699462, 0.0686953962,
          0.106448829, 0.108138353, 0.250767618, 0.00995656382, 0., 0.,
          0.0507274866, 0.131245658, 0.119255781, 0.135021597,
          0.223171011, 0., 0., 0., 0.0977633968, 0.154921278,
          0.140616655, 0.134167522, 0.259193927, 0.012291071,
          0.00696646841, 0., 0.103669867, 0.1457109, 0.0889915749,
          0.127458885, 0.278502017, 0.091460824, 0.0941591486,
          0.127614975, 0.0449114852, 0., 0., 0., 0.320145518,
          0.126963958, 0.121631406, 0.064806208, 0., 0., 0., 0. ]
      - [ 0.311953276, 0.118288293, 0.139191702, 0., 0.00958535634,
          0.0105716735, 0.0131146926, 0.0534759276, 0.26313141,
          0.101158582, 0.094747141, 0.127960876, 0.0554072559,
          0.03542291, 0.0111881103, 0.0174252484, 0.277548701,
          0.0164760537, 0.00541753508, 0.125605345, 0.079611361,
          0.0944418758, 0.113550894, 0.150034338, 0.228919625,
          0.00746237999, 0., 0.00644257152, 0.00997531135, 0.105711542,
          0.14068839, 0.156702042, 0.255166352, 0.00541753508,
          0.00541753508, 0., 0.00362292398, 0.13241142, 0.136267588,
          0.224512666, 0.226640105, 0.0143334512, 0.0272753295,
          0.0533450432, 0.126537457, 0.0915575773, 0.0756097659,
          0.121879011, 0.230664358, 0.158390984, 0.0912153646,
          0.113463603, 0.00362292398, 0.0188317187, 0., 0.00578478957,
          0.301088989, 0.197055355, 0.0997337401, 0., 0., 0., 0.,
          0.116074733 ]
      - [ 0.280423313, 0.12148758, 0., 0.0046618171, 0.00980887655, 0.,
          0.00623509008, 0.234500006, 0.17568627, 0.132345557,
          0.0862391815, 0.140989318, 0.0141568286, 0.00703973137,
          0.031178331, 0.206400737, 0.205769762, 0., 0., 0., 0.135737434,
          0.0866208225, 0.15061821, 0.201971889, 0.203299806,
          0.00440887455, 0.00554386619, 0., 0.00370740681, 0.0800115541,
          0.100842975, 0.28495115, 0.0810134336, 0., 0., 0., 0.,
          0.0760502741, 0.129459083, 0.246769831, 0.206538275,
          0.00773897348, 0., 0., 0.072058022, 0.13014394, 0.121756852,
          0.24836196, 0.183674127, 0.120678082, 0.134439796,
          0.0737370327, 0., 0., 0.00623509008, 0.205837145, 0.251621336,
          0.117181286, 0.0689601675, 0., 0., 0., 0., 0.183438182 ]
      - [ 0.226365536, 0.196428433, 0.104680918, 0., 0.00632126397,
          0.00692993449, 0.00613784324, 0.0823854208, 0.279012769,
          0.0860984549, 0.0668615699, 0.109666593, 0.0155110415, 0.,
          0.0533239134, 0.199192166, 0.31914559, 0.0075172917, 0., 0.,
          0.0440102629, 0.121301048, 0.117017969, 0.113662802,
          0.260683477, 0.00991962664, 0., 0., 0.00632126397, 0.101789936,
          0.13111043, 0.111306764, 0.139067799, 0., 0., 0., 0.,
          0.113806129, 0.143609181, 0.215871707, 0.233922884,
          0.00306892162, 0.00545740034, 0.108970292, 0.0872149095,
          0.100047424, 0.0981189683, 0.235056251, 0.267495185,
          0.10700807, 0.128115505, 0.0466750078, 0.116429113, 0., 0.,
          0.0620074198, 0.307229787, 0.114794925, 0.134775802,
          0.0346576646, 0., 0., 0., 0. ]
      - [ 0.263563931, 0.122715101, 0.0781219453, 0.0441788919,
          0.0122013576, 0.00680798106, 0., 0.11001578, 0.259190351,
          0.131787404, 0.0836688057, 0.0566846505, 0.012487472, 0.,
          0.0531647243, 0.196527153, 0.241586655, 0.0588090792,
          0.00743576139, 0.00450834911, 0.0616849065, 0.0881772712,
          0.126994774, 0.204179198, 0.197109595, 0.00426373305, 0.,
          0.0347770602, 0.0127989827, 0.0729046464, 0.112027869,
          0.228658184, 0.277589679, 0., 0., 0.00450834911, 0.0439284109,
          0.112981744, 0.145892337, 0.1615998, 0.27066353, 0.00738500198,
          0.0262845531, 0.112073496, 0.0622768588, 0.125710189,
          0.0831304416, 0.07707344, 0.277260751, 0.083344318,
          0.144413665, 0.108623087, 0.00358535792, 0., 0., 0.,
          0.321264744, 0.140665784, 0.112288639, 0.025509296, 0., 0., 0.,
          0.0778114423 ]
      - [ 0.246705011, 0.201276183, 0.076194942, 0.0420435853,
          0.0110450722, 0.00583937112, 0.0384370163, 0.249041334,
          0.109080695, 0.113391526, 0.0959203988, 0.132020503,
          0.0107520381, 0.00666773459, 0.144766286, 0.126183122,
          0.201736316, 0.0460797064, 0.0106139155, 0.0383651406,
          0.11696212, 0.0890864804, 0.04952766, 0.299152851,
          0.00676369807, 0.0100061269, 0.00666773459, 0., 0.0136185559,
          0.0428565629, 0.202910766, 0.234848574, 0.163917542, 0., 0.,
          0., 0.00390502298, 0.130690858, 0.116358399, 0.289277613,
          0.156085581, 0.00464388076, 0.0326859243, 0., 0.109912127,
          0.100159846, 0.137898877, 0.214288503, 0.0895233229,
          0.0517789051, 0.0229956061, 0.12908712, 0.157453254,
          0.0643755943, 0.0671108291, 0.19168593, 0.217777655,
          0.124407172, 0.0616046861, 0.00694422191, 0., 0.072220616,
          0.0992078483, 0.221135572 ]
      - [ 0.250793517, 0.0820800439, 0.039095629, 0.00611457694,
          0.019179862, 0.0263161063, 0.00910805352, 0.250818163,
          0.158844531, 0.166845322, 0.0300571639, 0.0851968452,
          0.014328545, 0.0254606325, 0.00322018308, 0.241110325,
          0.195751056, 0.00644036615, 0.0376611203, 0.00611457694,
          0.116349518, 0.0741055161, 0.108571038, 0.242193744,
          0.115182199, 0.01075863, 0., 0.0101831127, 0.0114883939,
          0.0604383089, 0.173116639, 0.257801145, 0.0816127807, 0., 0.,
          0., 0., 0., 0.0756349862, 0.294543266, 0.195986509, 0., 0.,
          0.0338403545, 0.0856596455, 0., 0.11394643, 0.311495513,
          0.192570224, 0.133817852, 0.101298586, 0.115831301,
